{"learner":{"attributes":{},"feature_names":[],"feature_types":[],"gradient_booster":{"model":{"cats":{"enc":[],"feature_segments":[],"sorted_idx":[]},"gbtree_model_param":{"num_parallel_tree":"1","num_trees":"100"},"iteration_indptr":[0,1,2,3,4,5,6,7,8,9,10,11,12,13,14,15,16,17,18,19,20,21,22,23,24,25,26,27,28,29,30,31,32,33,34,35,36,37,38,39,40,41,42,43,44,45,46,47,48,49,50,51,52,53,54,55,56,57,58,59,60,61,62,63,64,65,66,67,68,69,70,71,72,73,74,75,76,77,78,79,80,81,82,83,84,85,86,87,88,89,90,91,92,93,94,95,96,97,98,99,100],"tree_info":[0,0,0,0,0,0,0,0,0,0,0,0,0,0,0,0,0,0,0,0,0,0,0,0,0,0,0,0,0,0,0,0,0,0,0,0,0,0,0,0,0,0,0,0,0,0,0,0,0,0,0,0,0,0,0,0,0,0,0,0,0,0,0,0,0,0,0,0,0,0,0,0,0,0,0,0,0,0,0,0,0,0,0,0,0,0,0,0,0,0,0,0,0,0,0,0,0,0,0,0],"trees":[{"base_weights":[1.016952E-7,-1.8150241E0,1.7517769E0,-1.9687147E0,5.8901288E-2,-1.5622015E0,1.9325504E0,-1.990416E-1,-1.7138368E0,-1.8354763E0,1.3836567E0,-1.8411419E-1,1.2294225E-1,6.853847E-1,1.9645991E0,-1.8575796E0,2.4504194E-1,-1.8950413E-1,-2.1888992E-2,4.9092104E-3,1.5367297E0,-1.1064521E0,1.2048089E-1,-1.086008E0,1.1116097E0,1.5773355E0,1.9868401E0,-1.9459209E-1,-1.2445102E0,-4.9550328E-1,1.0810838E-1,-6.6227096E-1,9.129144E-2,9.054074E-1,1.688364E-1,-1.3804701E-1,-2.1888992E-2,-1.2895383E-1,-2.1888992E-2,2.91031E-1,1.5611242E0,1.385345E-1,1.7634703E0,1.2685367E0,1.9923477E-1,-1.4946121E-1,4.000092E-4,-1.7800096E-2,-6.633366E-2,-7.9640426E-2,-2.1888992E-2,-6.633366E-2,1.2053241E-1,-4.298292E-2,1.2545086E-1,1.7197286E-1,7.545052E-2,-4.713367E-2,1.0810838E-1,1.2055738E-1,1.924221E-1,4.0440276E-2,1.5606788E-1],"categories":[],"categories_nodes":[],"categories_segments":[],"categories_sizes":[],"default_left":[0,0,0,0,0,0,0,0,0,0,0,0,0,0,0,0,0,0,0,0,0,0,0,0,0,0,0,0,0,0,0,0,0,0,0,0,0,0,0,0,0,0,0,0,0,0,0,0,0,0,0,0,0,0,0,0,0,0,0,0,0,0,0],"id":0,"left_children":[1,3,5,7,9,11,13,-1,15,17,19,-1,21,23,25,27,29,-1,-1,31,33,35,-1,37,39,41,43,-1,45,47,-1,49,-1,51,-1,-1,-1,-1,-1,53,55,57,59,61,-1,-1,-1,-1,-1,-1,-1,-1,-1,-1,-1,-1,-1,-1,-1,-1,-1,-1,-1],"loss_changes":[6.365336E3,2.8329443E2,6.133257E2,1.6149902E0,1.920118E2,2.525653E1,3.7284424E1,0E0,2.2558624E1,2.6183548E0,9.489578E0,0E0,1.2638317E1,2.06486E1,4.977539E0,1.5453796E0,4.4051933E0,0E0,0E0,3.9364886E0,2.348381E0,7.9225826E-1,0E0,6.8839264E-1,7.383919E0,1.4752975E1,9.807129E-1,0E0,3.753006E0,9.507388E-2,0E0,4.8694253E-2,0E0,5.5044203E0,0E0,0E0,0E0,0E0,0E0,6.6163363E0,4.2953873E-1,4.8207726E0,2.1194305E0,1.7671108E0,0E0,0E0,0E0,0E0,0E0,0E0,0E0,0E0,0E0,0E0,0E0,0E0,0E0,0E0,0E0,0E0,0E0,0E0,0E0],"parents":[2147483647,0,0,1,1,2,2,3,3,4,4,5,5,6,6,8,8,9,9,10,10,12,12,13,13,14,14,15,15,16,16,19,19,20,20,21,21,23,23,24,24,25,25,26,26,28,28,29,29,31,31,33,33,39,39,40,40,41,41,42,42,43,43],"right_children":[2,4,6,8,10,12,14,-1,16,18,20,-1,22,24,26,28,30,-1,-1,32,34,36,-1,38,40,42,44,-1,46,48,-1,50,-1,52,-1,-1,-1,-1,-1,54,56,58,60,62,-1,-1,-1,-1,-1,-1,-1,-1,-1,-1,-1,-1,-1,-1,-1,-1,-1,-1,-1],"split_conditions":[6.260477E-1,6.6613024E-1,4.1304368E-1,5.4867524E-1,5.0457513E-1,7.93299E-1,4.9564156E-1,-1.990416E-1,5.9055626E-1,8.869372E-1,5.3036565E-1,-1.8411419E-1,3.3333534E-1,6.641426E-1,5.8278126E-1,5.018518E-1,1E0,-1.8950413E-1,-2.1888992E-2,1E0,5.725379E-1,2.951131E-1,1.2048089E-1,4.7189286E-1,1E0,6.7831033E-1,6.372273E-1,-1.9459209E-1,1E0,6.031496E-1,1.0810838E-1,5.185794E-1,9.129144E-2,7.001699E-1,1.688364E-1,-1.3804701E-1,-2.1888992E-2,-1.2895383E-1,-2.1888992E-2,7.7373403E-1,4.7531214E-1,1E0,1E0,7.14343E-1,1.9923477E-1,-1.4946121E-1,4.000092E-4,-1.7800096E-2,-6.633366E-2,-7.9640426E-2,-2.1888992E-2,-6.633366E-2,1.2053241E-1,-4.298292E-2,1.2545086E-1,1.7197286E-1,7.545052E-2,-4.713367E-2,1.0810838E-1,1.2055738E-1,1.924221E-1,4.0440276E-2,1.5606788E-1],"split_indices":[0,1,1,1,0,0,1,0,0,1,0,0,1,0,1,0,2,0,0,2,0,1,0,1,2,0,0,0,2,0,0,0,0,1,0,0,0,0,0,0,1,2,2,1,0,0,0,0,0,0,0,0,0,0,0,0,0,0,0,0,0,0,0],"split_type":[0,0,0,0,0,0,0,0,0,0,0,0,0,0,0,0,0,0,0,0,0,0,0,0,0,0,0,0,0,0,0,0,0,0,0,0,0,0,0,0,0,0,0,0,0,0,0,0,0,0,0,0,0,0,0,0,0,0,0,0,0,0,0],"sum_hessian":[1.9999819E3,9.822411E2,1.0177408E3,9.0774176E2,7.449933E1,5.2249527E1,9.654913E2,8.302425E2,7.74993E1,3.0499723E1,4.3999603E1,4.4749596E1,7.4999323E0,2.4749775E1,9.4074146E2,7.2249344E1,5.2499523E0,2.9249735E1,1.2499887E0,4.499959E0,3.949964E1,3.4999683E0,3.9999638E0,4.499959E0,2.0249817E1,5.49995E1,8.85742E2,6.1249447E1,1.0999901E1,2.9999728E0,2.2499795E0,2.7499752E0,1.7499841E0,8.999918E0,3.0499723E1,2.2499795E0,1.2499887E0,3.2499704E0,1.2499887E0,7.74993E0,1.24998865E1,6.499941E0,4.849956E1,8.499923E0,8.7724207E2,8.999918E0,1.9999819E0,1.7499841E0,1.2499887E0,1.4999864E0,1.2499887E0,1.2499887E0,7.74993E0,4.749957E0,2.9999728E0,9.499914E0,2.9999728E0,4.2499614E0,2.2499795E0,1.2749885E1,3.5749676E1,2.7499752E0,5.749948E0],"tree_param":{"num_deleted":"0","num_feature":"3","num_nodes":"63","size_leaf_vector":"1"}},{"base_weights":[4.5519286E-5,-1.664147E0,1.5797204E0,-1.7588671E0,6.0083884E-1,-1.4429351E0,1.7532729E0,-1.7935157E0,-7.733535E-1,-1.5073903E0,1.4317993E0,-1.7029737E-1,9.563195E-3,6.609503E-1,1.7878428E0,-1.8111752E-1,-1.5833697E0,-1.7021285E-1,8.6655027E-1,-1.6386072E-1,-4.8344966E-2,3.5809475E-1,1.5538386E-1,-1.1130073E0,1.0282568E0,-1.0568696E0,1.1113443E0,1.4383558E0,1.8060839E-1,-1.692488E0,7.137288E-2,8.067331E-2,1.3631521E-1,-2.915519E-2,1.06483035E-1,-1.3609661E-1,-2.0675158E-2,1.2858357E-1,5.128597E-2,-1.3421398E-1,-1.2760348E-2,4.7534946E-1,1.5891492E-1,1.496875E-1,1.6058923E0,-1.7725234E-1,-1.13784194E-1,-6.365437E-2,9.336065E-2,-5.499208E-2,8.956223E-2,-2.8534079E-2,1.1401204E-1,-3.50311E-2,9.336065E-2,1.09802954E-1,1.7459868E-1],"categories":[],"categories_nodes":[],"categories_segments":[],"categories_sizes":[],"default_left":[0,0,0,0,0,0,0,0,0,0,0,0,0,0,0,0,0,0,0,0,0,0,0,0,0,0,0,0,0,0,0,0,0,0,0,0,0,0,0,0,0,0,0,0,0,0,0,0,0,0,0,0,0,0,0,0,0],"id":1,"left_children":[1,3,5,7,9,11,13,15,17,19,21,-1,23,25,27,-1,29,-1,31,-1,-1,33,-1,35,37,39,41,43,-1,45,47,49,-1,-1,-1,-1,-1,-1,-1,-1,-1,51,-1,53,55,-1,-1,-1,-1,-1,-1,-1,-1,-1,-1,-1,-1],"loss_changes":[5.2133203E3,2.0824048E2,5.362373E2,3.0273438E1,7.1373566E1,2.108915E1,3.5166748E1,4.5361328E-1,5.211705E1,7.740593E-1,3.2242317E0,0E0,1.1969428E1,2.5248917E1,3.3469238E0,0E0,1.408316E1,0E0,4.8405113E0,0E0,0E0,2.2590845E0,0E0,8.38511E-1,6.836891E-2,1.6780672E0,6.8841476E0,1.080648E1,0E0,1.2052155E0,4.0998955E0,3.5629456E0,0E0,0E0,0E0,0E0,0E0,0E0,0E0,0E0,0E0,6.5004683E0,0E0,3.0666614E0,1.2971497E0,0E0,0E0,0E0,0E0,0E0,0E0,0E0,0E0,0E0,0E0,0E0,0E0],"parents":[2147483647,0,0,1,1,2,2,3,3,4,4,5,5,6,6,7,7,8,8,9,9,10,10,12,12,13,13,14,14,16,16,18,18,21,21,23,23,24,24,25,25,26,26,27,27,29,29,30,30,31,31,41,41,43,43,44,44],"right_children":[2,4,6,8,10,12,14,16,18,20,22,-1,24,26,28,-1,30,-1,32,-1,-1,34,-1,36,38,40,42,44,-1,46,48,50,-1,-1,-1,-1,-1,-1,-1,-1,-1,52,-1,54,56,-1,-1,-1,-1,-1,-1,-1,-1,-1,-1,-1,-1],"split_conditions":[6.217885E-1,7.4153566E-1,4.1304368E-1,6.6613024E-1,4.9553436E-1,7.826456E-1,5.0509274E-1,5.4867524E-1,5.2216357E-1,8.6515653E-1,5.3036565E-1,-1.7029737E-1,3.3333534E-1,6.641426E-1,5.8278126E-1,-1.8111752E-1,5.9055626E-1,-1.7021285E-1,1E0,-1.6386072E-1,-4.8344966E-2,1E0,1.5538386E-1,2.951131E-1,3.7172937E-1,1E0,7.7373403E-1,6.7831033E-1,1.8060839E-1,5.018518E-1,1E0,5.978998E-1,1.3631521E-1,-2.915519E-2,1.06483035E-1,-1.3609661E-1,-2.0675158E-2,1.2858357E-1,5.128597E-2,-1.3421398E-1,-1.2760348E-2,1E0,1.5891492E-1,1E0,1E0,-1.7725234E-1,-1.13784194E-1,-6.365437E-2,9.336065E-2,-5.499208E-2,8.956223E-2,-2.8534079E-2,1.1401204E-1,-3.50311E-2,9.336065E-2,1.09802954E-1,1.7459868E-1],"split_indices":[0,1,1,1,0,0,1,1,0,1,0,0,1,0,1,0,0,0,2,0,0,2,0,1,1,2,0,0,0,0,2,0,0,0,0,0,0,0,0,0,0,2,0,2,2,0,0,0,0,0,0,0,0,0,0,0,0],"split_type":[0,0,0,0,0,0,0,0,0,0,0,0,0,0,0,0,0,0,0,0,0,0,0,0,0,0,0,0,0,0,0,0,0,0,0,0,0,0,0,0,0,0,0,0,0,0,0,0,0,0,0,0,0,0,0,0,0],"sum_hessian":[1.9810931E3,9.647122E2,1.01638086E3,9.262025E2,3.8509712E1,5.4791805E1,9.6158905E2,8.9395325E2,3.224931E1,1.0657229E1,2.7852482E1,4.6325737E1,8.466066E0,3.0116062E1,9.31473E2,8.1762616E2,7.632704E1,2.0564482E1,1.168483E1,8.914545E0,1.7426844E0,3.244197E0,2.4608286E1,3.983635E0,4.482432E0,5.976173E0,2.4139889E1,5.0166832E1,8.8130615E2,7.15838E1,4.7432413E0,4.9747276E0,6.7101026E0,1.9964676E0,1.2477294E0,2.733878E0,1.2497569E0,1.9920332E0,2.4903986E0,4.232546E0,1.7436267E0,1.1211451E1,1.2928439E1,5.989541E0,4.417729E1,6.0637978E1,1.0945825E1,2.7484453E0,1.994796E0,2.987927E0,1.9868006E0,5.4946966E0,5.716754E0,3.9947448E0,1.994796E0,1.1462353E1,3.271494E1],"tree_param":{"num_deleted":"0","num_feature":"3","num_nodes":"57","size_leaf_vector":"1"}},{"base_weights":[1.4092096E-5,-1.5493739E0,1.4491338E0,-1.6304237E0,4.8024324E-1,-1.3474128E0,1.6182619E0,-1.6593816E0,-7.8549445E-1,-1.4006623E0,1.2835964E0,-1.5644811E-1,1.0594805E-1,6.052477E-1,1.6506222E0,-1.6762887E-1,-1.4586576E0,-1.5751296E-1,7.198983E-1,-1.523336E-1,-4.5363028E-2,3.4151593E-1,1.4012413E-1,-9.679925E-1,1.04952134E-1,-9.7990227E-1,1.0226972E0,1.3098756E0,1.6686438E-1,-1.5642936E0,2.5474557E-1,-7.4118264E-2,1.228217E-1,-2.7234185E-2,1.01002276E-1,-1.2081262E-1,-1.9531136E-2,-1.2461497E-1,-1.1954087E-2,4.3755952E-1,1.4665876E-1,7.4024424E-2,1.4816825E0,-1.6406669E-1,-1.0440431E-1,-3.9427344E-2,8.756416E-2,-5.0830632E-2,6.555583E-2,-2.6133547E-2,1.0538997E-1,-3.9631877E-2,8.756416E-2,1.00600004E-1,1.6151087E-1],"categories":[],"categories_nodes":[],"categories_segments":[],"categories_sizes":[],"default_left":[0,0,0,0,0,0,0,0,0,0,0,0,0,0,0,0,0,0,0,0,0,0,0,0,0,0,0,0,0,0,0,0,0,0,0,0,0,0,0,0,0,0,0,0,0,0,0,0,0,0,0,0,0,0,0],"id":2,"left_children":[1,3,5,7,9,11,13,15,17,19,21,-1,23,25,27,-1,29,-1,31,-1,-1,33,-1,35,-1,37,39,41,-1,43,45,47,-1,-1,-1,-1,-1,-1,-1,49,-1,51,53,-1,-1,-1,-1,-1,-1,-1,-1,-1,-1,-1,-1],"loss_changes":[4.3431445E3,1.5456519E2,4.7493164E2,2.0696777E1,5.720829E1,1.8320679E1,2.9913574E1,5.0219727E-1,3.880966E1,6.3954353E-1,2.427166E0,0E0,9.542902E0,2.136304E1,3.421875E0,0E0,1.4004379E1,0E0,4.7694283E0,0E0,0E0,2.0120733E0,0E0,5.907779E-1,0E0,1.4372764E0,5.8114243E0,1.0617798E1,0E0,1.1060181E0,2.450927E0,2.0653627E0,0E0,0E0,0E0,0E0,0E0,0E0,0E0,5.5059037E0,0E0,3.0688574E0,1.1871109E0,0E0,0E0,0E0,0E0,0E0,0E0,0E0,0E0,0E0,0E0,0E0,0E0],"parents":[2147483647,0,0,1,1,2,2,3,3,4,4,5,5,6,6,7,7,8,8,9,9,10,10,12,12,13,13,14,14,16,16,18,18,21,21,23,23,25,25,26,26,27,27,29,29,30,30,31,31,39,39,41,41,42,42],"right_children":[2,4,6,8,10,12,14,16,18,20,22,-1,24,26,28,-1,30,-1,32,-1,-1,34,-1,36,-1,38,40,42,-1,44,46,48,-1,-1,-1,-1,-1,-1,-1,50,-1,52,54,-1,-1,-1,-1,-1,-1,-1,-1,-1,-1,-1,-1],"split_conditions":[6.182021E-1,7.4153566E-1,4.1304368E-1,6.6613024E-1,4.9553436E-1,7.93299E-1,5.0509274E-1,5.4867524E-1,5.2216357E-1,8.6515653E-1,5.3036565E-1,-1.5644811E-1,3.3333534E-1,6.641426E-1,5.8278126E-1,-1.6762887E-1,5.9055626E-1,-1.5751296E-1,1E0,-1.523336E-1,-4.5363028E-2,1E0,1.4012413E-1,2.951131E-1,1.04952134E-1,1E0,7.7373403E-1,6.7831033E-1,1.6686438E-1,5.018518E-1,1E0,5.978998E-1,1.228217E-1,-2.7234185E-2,1.01002276E-1,-1.2081262E-1,-1.9531136E-2,-1.2461497E-1,-1.1954087E-2,1E0,1.4665876E-1,1E0,1E0,-1.6406669E-1,-1.0440431E-1,-3.9427344E-2,8.756416E-2,-5.0830632E-2,6.555583E-2,-2.6133547E-2,1.0538997E-1,-3.9631877E-2,8.756416E-2,1.00600004E-1,1.6151087E-1],"split_indices":[0,1,1,1,0,0,1,1,0,1,0,0,1,0,1,0,0,0,2,0,0,2,0,1,0,2,0,0,0,0,2,0,0,0,0,0,0,0,0,2,0,2,2,0,0,0,0,0,0,0,0,0,0,0,0],"split_type":[0,0,0,0,0,0,0,0,0,0,0,0,0,0,0,0,0,0,0,0,0,0,0,0,0,0,0,0,0,0,0,0,0,0,0,0,0,0,0,0,0,0,0,0,0,0,0,0,0,0,0,0,0,0,0],"sum_hessian":[1.9323713E3,9.3384357E2,9.985278E2,8.98173E2,3.5670586E1,5.654731E1,9.4198047E2,8.674784E2,3.0694603E1,1.0453079E1,2.5217506E1,4.9132603E1,7.4147077E0,2.9769655E1,9.122108E2,7.933064E2,7.4171974E1,2.0103327E1,1.0591276E1,8.71557E0,1.737509E0,3.232789E0,2.1984716E1,3.455689E0,3.9590185E0,5.9247365E0,2.3844917E1,4.9523167E1,8.626877E2,6.994661E1,4.225371E0,4.4673166E0,6.1239595E0,1.9942118E0,1.2385771E0,2.2064257E0,1.2492633E0,4.182132E0,1.7426045E0,1.1142533E1,1.2702385E1,6.2190194E0,4.3304146E1,5.9114876E1,1.0831732E1,2.2443538E0,1.981017E0,2.9909546E0,1.476362E0,5.491486E0,5.6510468E0,4.2380023E0,1.981017E0,1.1356485E1,3.1947662E1],"tree_param":{"num_deleted":"0","num_feature":"3","num_nodes":"55","size_leaf_vector":"1"}},{"base_weights":[-4.785773E-5,-1.4296594E0,1.3749596E0,-1.5535737E0,4.575487E-2,-1.2191995E0,1.5179945E0,-1.5701586E-1,-1.3250141E0,-1.457671E0,1.0774717E0,-1.462995E0,1.4144479E-2,5.17844E-1,1.544732E0,-1.4309709E0,5.1040167E-1,-1.5090172E-1,-1.5917901E-2,4.5957485E-1,1.331688E-1,-1.5487777E-1,-1.0025905E0,-9.806329E-1,9.11126E-1,-8.757103E-1,8.5806537E-1,7.538359E-1,1.5523324E0,-1.5300639E-1,-8.6108345E-1,-1.4371553E-2,1.03042305E-1,-1.8428567E-1,1.08768955E-1,-1.17410555E-1,-5.215321E-1,-1.20338395E-1,-1.8452484E-2,1.17188014E-1,4.249868E-1,-1.08563505E-1,-9.063795E-3,2.0168835E-1,1.227294E0,1.3320677E-2,1.2010504E-1,1.2741191E0,1.5681618E-1,-1.09338425E-1,1.4981299E-2,-9.808884E-2,3.6142394E-2,6.085716E-3,-7.605108E-2,1.3662969E-2,5.224327E-2,-2.8231248E-2,1.12898074E-1,1.3847265E-1,5.0910383E-2,-2.6837418E-2,4.7630236E-2,5.736469E-2,1.465889E-1],"categories":[],"categories_nodes":[],"categories_segments":[],"categories_sizes":[],"default_left":[0,0,0,0,0,0,0,0,0,0,0,0,0,0,0,0,0,0,0,0,0,0,0,0,0,0,0,0,0,0,0,0,0,0,0,0,0,0,0,0,0,0,0,0,0,0,0,0,0,0,0,0,0,0,0,0,0,0,0,0,0,0,0,0,0],"id":3,"left_children":[1,3,5,7,9,11,13,-1,15,17,19,21,23,25,27,29,31,-1,-1,33,-1,-1,35,37,39,41,43,45,47,-1,49,-1,-1,51,-1,-1,53,-1,-1,-1,55,-1,-1,57,59,61,-1,63,-1,-1,-1,-1,-1,-1,-1,-1,-1,-1,-1,-1,-1,-1,-1,-1,-1],"loss_changes":[3.6662905E3,1.6724585E2,3.546167E2,1.1171875E0,1.1296816E2,1.5125526E1,2.3307129E1,0E0,1.3074875E1,1.736805E0,6.168396E0,1.04141235E-1,9.175321E0,1.2593106E1,4.104248E0,2.086296E0,1.5772517E0,0E0,0E0,5.906573E0,0E0,0E0,1.6528702E-1,6.437721E-1,1.8636084E-1,7.9090214E-1,4.74016E0,3.3938723E0,1.8256836E0,0E0,2.7975283E0,0E0,0E0,3.755075E0,0E0,0E0,6.414486E-1,0E0,0E0,0E0,2.5672197E-2,0E0,0E0,4.1810784E0,7.620106E-1,7.653351E-1,0E0,6.1538544E0,0E0,0E0,0E0,0E0,0E0,0E0,0E0,0E0,0E0,0E0,0E0,0E0,0E0,0E0,0E0,0E0,0E0],"parents":[2147483647,0,0,1,1,2,2,3,3,4,4,5,5,6,6,8,8,9,9,10,10,11,11,12,12,13,13,14,14,15,15,16,16,19,19,22,22,23,23,24,24,25,25,26,26,27,27,28,28,30,30,33,33,36,36,40,40,43,43,44,44,45,45,47,47],"right_children":[2,4,6,8,10,12,14,-1,16,18,20,22,24,26,28,30,32,-1,-1,34,-1,-1,36,38,40,42,44,46,48,-1,50,-1,-1,52,-1,-1,54,-1,-1,-1,56,-1,-1,58,60,62,-1,64,-1,-1,-1,-1,-1,-1,-1,-1,-1,-1,-1,-1,-1,-1,-1,-1,-1],"split_conditions":[6.260477E-1,6.6613024E-1,4.1304368E-1,5.5959135E-1,5.0457513E-1,7.826456E-1,4.9564156E-1,-1.5701586E-1,5.978998E-1,8.869372E-1,5.725379E-1,1E0,3.3333534E-1,6.641426E-1,6.372273E-1,5.018518E-1,1E0,-1.5090172E-1,-1.5917901E-2,1E0,1.331688E-1,-1.5487777E-1,7.032248E-1,2.951131E-1,3.7172937E-1,4.7189286E-1,1E0,7.14343E-1,5.8278126E-1,-1.5300639E-1,1E0,-1.4371553E-2,1.03042305E-1,7.3291636E-1,1.08768955E-1,-1.17410555E-1,7.177924E-1,-1.20338395E-1,-1.8452484E-2,1.17188014E-1,8.1669676E-1,-1.08563505E-1,-9.063795E-3,8.147011E-1,4.7531214E-1,1E0,1.2010504E-1,7.2432363E-1,1.5681618E-1,-1.09338425E-1,1.4981299E-2,-9.808884E-2,3.6142394E-2,6.085716E-3,-7.605108E-2,1.3662969E-2,5.224327E-2,-2.8231248E-2,1.12898074E-1,1.3847265E-1,5.0910383E-2,-2.6837418E-2,4.7630236E-2,5.736469E-2,1.465889E-1],"split_indices":[0,1,1,1,0,0,1,0,0,1,0,2,1,0,0,0,2,0,0,2,0,0,0,1,1,1,2,1,1,0,2,0,0,1,0,0,0,0,0,0,0,0,0,0,1,2,0,0,0,0,0,0,0,0,0,0,0,0,0,0,0,0,0,0,0],"split_type":[0,0,0,0,0,0,0,0,0,0,0,0,0,0,0,0,0,0,0,0,0,0,0,0,0,0,0,0,0,0,0,0,0,0,0,0,0,0,0,0,0,0,0,0,0,0,0,0,0,0,0,0,0,0,0,0,0,0,0,0,0,0,0,0,0],"sum_hessian":[1.8631072E3,9.1339734E2,9.4970984E2,8.425794E2,7.081796E1,4.9234932E1,9.004749E2,7.8010333E2,6.247607E1,2.8652483E1,4.216548E1,4.095345E1,8.281485E0,2.3976305E1,8.764986E2,5.927456E1,3.2015088E0,2.7406614E1,1.2458692E0,1.3109469E1,2.9056013E1,3.252874E1,8.424709E0,3.8824644E0,4.3990197E0,4.3960485E0,1.9580256E1,9.296466E0,8.6720215E2,4.905921E1,1.0215349E1,1.738431E0,1.4630778E0,6.8225226E0,6.286947E0,5.1484337E0,3.2762759E0,2.6339126E0,1.248552E0,1.9451172E0,2.4539025E0,3.1664948E0,1.2295537E0,7.6057577E0,1.1974498E1,3.8881314E0,5.4083343E0,5.1071625E1,8.161305E2,8.240182E0,1.975167E0,2.4494576E0,4.373065E0,1.1700985E0,2.1061773E0,1.2265283E0,1.2273742E0,5.454388E0,2.1513696E0,9.06033E0,2.9141674E0,2.678668E0,1.2094634E0,1.1834702E1,3.9236923E1],"tree_param":{"num_deleted":"0","num_feature":"3","num_nodes":"65","size_leaf_vector":"1"}},{"base_weights":[-6.9496724E-5,-1.3617848E0,1.2873127E0,-1.4419949E0,4.8344493E-1,-1.1641396E0,1.4306144E0,-1.4714952E0,-6.2800354E-1,-1.2310543E0,1.149618E0,-1.3888104E-1,1.7525176E-2,6.960816E-1,1.4700636E0,-1.4878617E-1,-1.2809855E0,-1.3954528E-1,6.6682595E-1,-1.3621922E-1,-3.9873283E-2,2.936912E-1,1.251704E-1,-9.2586404E-1,8.62001E-1,-7.0319515E-1,1.0630084E0,1.2095214E0,1.4800137E-1,-1.3906469E0,-1.0931763E-2,2.3108305E-2,1.0928336E0,8.3517544E-2,-4.116201E-2,-1.1402106E-1,-1.7435122E-2,1.10916175E-1,4.0289918E-1,-1.0454942E0,4.341143E-2,5.089568E-1,1.3274738E0,5.609416E-1,1.4139861E-1,-1.4537351E-1,-9.260121E-2,-5.3648252E-2,8.229222E-2,-4.8687294E-2,7.146114E-2,5.1315185E-2,1.2619953E-1,1.2918681E-2,4.9584683E-2,-1.2072863E-1,-1.647457E-2,-5.2744355E-2,6.615929E-2,-1.1815473E-2,1.3337237E-1,7.802459E-2,1.4172849E-1,7.650421E-2,-9.452883E-3],"categories":[],"categories_nodes":[],"categories_segments":[],"categories_sizes":[],"default_left":[0,0,0,0,0,0,0,0,0,0,0,0,0,0,0,0,0,0,0,0,0,0,0,0,0,0,0,0,0,0,0,0,0,0,0,0,0,0,0,0,0,0,0,0,0,0,0,0,0,0,0,0,0,0,0,0,0,0,0,0,0,0,0,0,0],"id":4,"left_children":[1,3,5,7,9,11,13,15,17,19,21,-1,23,25,27,-1,29,-1,31,-1,-1,33,-1,35,37,39,41,43,-1,45,47,49,51,-1,-1,-1,-1,-1,53,55,57,59,61,63,-1,-1,-1,-1,-1,-1,-1,-1,-1,-1,-1,-1,-1,-1,-1,-1,-1,-1,-1,-1,-1],"loss_changes":[3.1248313E3,1.2890698E2,3.2354675E2,1.9016602E1,4.3486584E1,1.3605072E1,2.407373E1,5.9033203E-1,3.1524488E1,6.345978E-1,1.9955139E0,0E0,8.095394E0,2.4388136E1,3.3862305E-1,0E0,9.808128E0,0E0,3.3021789E0,0E0,0E0,1.94341E0,0E0,5.7579803E-1,1.6032171E-1,2.643825E0,4.727833E0,3.9377403E0,0E0,5.567627E-1,3.3398888E0,2.412276E0,6.628418E-2,0E0,0E0,0E0,0E0,0E0,2.3539364E-2,8.0018854E-1,1.8156799E0,7.159105E0,9.041214E-2,1.4380193E0,0E0,0E0,0E0,0E0,0E0,0E0,0E0,0E0,0E0,0E0,0E0,0E0,0E0,0E0,0E0,0E0,0E0,0E0,0E0,0E0,0E0],"parents":[2147483647,0,0,1,1,2,2,3,3,4,4,5,5,6,6,7,7,8,8,9,9,10,10,12,12,13,13,14,14,16,16,18,18,21,21,23,23,24,24,25,25,26,26,27,27,29,29,30,30,31,31,32,32,38,38,39,39,40,40,41,41,42,42,43,43],"right_children":[2,4,6,8,10,12,14,16,18,20,22,-1,24,26,28,-1,30,-1,32,-1,-1,34,-1,36,38,40,42,44,-1,46,48,50,52,-1,-1,-1,-1,-1,54,56,58,60,62,64,-1,-1,-1,-1,-1,-1,-1,-1,-1,-1,-1,-1,-1,-1,-1,-1,-1,-1,-1,-1,-1],"split_conditions":[6.217885E-1,7.4153566E-1,4.1304368E-1,6.6613024E-1,4.9553436E-1,7.826456E-1,5.3995395E-1,5.4867524E-1,5.2216357E-1,4.225486E-1,5.3036565E-1,-1.3888104E-1,3.3333534E-1,6.867215E-1,6.556145E-1,-1.4878617E-1,5.8668154E-1,-1.3954528E-1,1E0,-1.3621922E-1,-3.9873283E-2,5.1261127E-1,1.251704E-1,2.951131E-1,3.7172937E-1,1E0,1E0,7.14343E-1,1.4800137E-1,5.018518E-1,1E0,5.978998E-1,6.8398774E-1,8.3517544E-2,-4.116201E-2,-1.1402106E-1,-1.7435122E-2,1.10916175E-1,8.1669676E-1,5.2183396E-1,6.556145E-1,8.147011E-1,7.442719E-1,6.923662E-1,1.4139861E-1,-1.4537351E-1,-9.260121E-2,-5.3648252E-2,8.229222E-2,-4.8687294E-2,7.146114E-2,5.1315185E-2,1.2619953E-1,1.2918681E-2,4.9584683E-2,-1.2072863E-1,-1.647457E-2,-5.2744355E-2,6.615929E-2,-1.1815473E-2,1.3337237E-1,7.802459E-2,1.4172849E-1,7.650421E-2,-9.452883E-3],"split_indices":[0,1,1,1,0,0,1,1,0,0,0,0,1,0,0,0,0,0,2,0,0,0,0,1,1,2,2,1,0,0,2,0,1,0,0,0,0,0,0,1,0,0,0,1,0,0,0,0,0,0,0,0,0,0,0,0,0,0,0,0,0,0,0,0,0],"split_type":[0,0,0,0,0,0,0,0,0,0,0,0,0,0,0,0,0,0,0,0,0,0,0,0,0,0,0,0,0,0,0,0,0,0,0,0,0,0,0,0,0,0,0,0,0,0,0,0,0,0,0,0,0,0,0,0,0,0,0,0,0,0,0,0,0],"sum_hessian":[1.7805132E3,8.652481E2,9.1526514E2,8.2941296E2,3.583511E1,5.015432E1,8.651108E2,7.9962555E2,2.978744E1,9.790303E0,2.6044806E1,4.199456E1,8.159758E0,4.5044304E1,8.2006647E2,7.3009406E2,6.953149E1,1.8653654E1,1.1133786E1,7.9077644E0,1.8825388E0,3.18846E0,2.2856344E1,3.8086376E0,4.3511205E0,9.167515E0,3.587679E1,3.4674866E1,7.853916E2,6.3917637E1,5.613852E0,4.853764E0,6.280022E0,1.6995512E0,1.4889089E0,2.5609756E0,1.2476622E0,1.9079977E0,2.4431226E0,6.0112085E0,3.1563063E0,1.2536806E1,2.3339983E1,9.208419E0,2.5466446E1,5.4402153E1,9.515485E0,3.6622682E0,1.9515841E0,2.963853E0,1.8899109E0,2.329796E0,3.9502258E0,1.2251594E0,1.2179632E0,4.7651153E0,1.2460936E0,1.7172796E0,1.4390266E0,7.608457E0,4.928349E0,4.6563044E0,1.8683678E1,6.8944564E0,2.3139627E0],"tree_param":{"num_deleted":"0","num_feature":"3","num_nodes":"65","size_leaf_vector":"1"}},{"base_weights":[-1.8899198E-5,-1.2967012E0,1.223986E0,-1.3741212E0,4.5075834E-1,-1.0979924E0,1.3609617E0,-1.4032011E0,-5.855436E-1,-1.1664444E0,1.0772583E0,-1.3019044E0,9.605963E-2,6.5055025E-1,1.4000812E0,-1.4191549E-1,-1.2036396E0,-1.3251683E-1,6.2854993E-1,-1.2884794E-1,-3.3544287E-2,2.753812E-1,1.1759917E0,-1.3778781E0,-8.973004E-1,-8.1392825E-1,8.884989E-2,-6.5529567E-1,9.9827164E-1,1.1415328E0,1.4100987E0,-1.3105876E0,1.1151481E-2,2.5034439E-2,1.0342343E0,7.8640215E-2,-3.8702585E-2,7.435673E-1,1.282589E-1,-1.3993709E-1,-4.105059E-2,-1.0613614E-1,-4.5512176E-1,-1.0261249E-1,-1.6475286E-2,-9.800127E-1,4.2549532E-2,5.881773E-1,1.3488199E-1,5.190057E-1,1.3448803E-1,1.1673291E0,1.4202824E-1,-1.3818431E-1,-8.118705E-2,-4.975157E-2,9.761178E-2,-4.5086235E-2,6.7612156E-2,4.821242E-2,1.19787216E-1,9.1024004E-2,3.503355E-3,-4.8410278E-4,-8.42508E-2,-1.1345147E-1,-1.5568978E-2,-4.946598E-2,6.2614135E-2,-8.562858E-3,1.0286563E-1,8.335947E-3,8.721811E-2,6.58146E-2,1.3531788E-1],"categories":[],"categories_nodes":[],"categories_segments":[],"categories_sizes":[],"default_left":[0,0,0,0,0,0,0,0,0,0,0,0,0,0,0,0,0,0,0,0,0,0,0,0,0,0,0,0,0,0,0,0,0,0,0,0,0,0,0,0,0,0,0,0,0,0,0,0,0,0,0,0,0,0,0,0,0,0,0,0,0,0,0,0,0,0,0,0,0,0,0,0,0,0,0],"id":5,"left_children":[1,3,5,7,9,11,13,15,17,19,21,23,25,27,29,-1,31,-1,33,-1,-1,35,37,39,41,43,-1,45,47,49,51,53,55,57,59,-1,-1,61,-1,-1,-1,-1,63,-1,-1,65,67,69,-1,71,-1,73,-1,-1,-1,-1,-1,-1,-1,-1,-1,-1,-1,-1,-1,-1,-1,-1,-1,-1,-1,-1,-1,-1,-1],"loss_changes":[2.6847297E3,1.1174365E2,2.7825232E2,1.7220703E1,3.732583E1,1.2061871E1,2.1937012E1,7.055664E-1,2.7501028E1,6.245556E-1,1.7488384E0,5.293274E-2,6.5514207E0,2.0985975E1,4.0625E-1,0E0,8.161018E0,0E0,2.892849E0,0E0,0E0,1.7178875E0,1.0667038E-1,1.209259E-1,2.0596552E-1,4.2108035E-1,0E0,2.3121662E0,4.347023E0,3.6418762E0,1.8408203E-1,9.263687E-1,3.46271E0,2.1072214E0,6.431532E-2,0E0,0E0,7.863445E-1,0E0,0E0,0E0,0E0,7.496521E-1,0E0,0E0,6.9953394E-1,1.607707E0,5.505295E0,0E0,1.4766064E0,0E0,2.4793243E0,0E0,0E0,0E0,0E0,0E0,0E0,0E0,0E0,0E0,0E0,0E0,0E0,0E0,0E0,0E0,0E0,0E0,0E0,0E0,0E0,0E0,0E0,0E0],"parents":[2147483647,0,0,1,1,2,2,3,3,4,4,5,5,6,6,7,7,8,8,9,9,10,10,11,11,12,12,13,13,14,14,16,16,18,18,21,21,22,22,23,23,24,24,25,25,27,27,28,28,29,29,30,30,31,31,32,32,33,33,34,34,37,37,42,42,45,45,46,46,47,47,49,49,51,51],"right_children":[2,4,6,8,10,12,14,16,18,20,22,24,26,28,30,-1,32,-1,34,-1,-1,36,38,40,42,44,-1,46,48,50,52,54,56,58,60,-1,-1,62,-1,-1,-1,-1,64,-1,-1,66,68,70,-1,72,-1,74,-1,-1,-1,-1,-1,-1,-1,-1,-1,-1,-1,-1,-1,-1,-1,-1,-1,-1,-1,-1,-1,-1,-1],"split_conditions":[6.217885E-1,7.4153566E-1,4.1304368E-1,6.6613024E-1,4.9553436E-1,7.93299E-1,5.3995395E-1,5.5384654E-1,5.2216357E-1,8.6515653E-1,5.3036565E-1,1E0,3.3333534E-1,6.867215E-1,6.556145E-1,-1.4191549E-1,5.8668154E-1,-1.3251683E-1,1E0,-1.2884794E-1,-3.3544287E-2,5.1261127E-1,5.725379E-1,7.718977E-1,7.032248E-1,2.951131E-1,8.884989E-2,1E0,7.967305E-1,7.14343E-1,5.911231E-1,5.018518E-1,1E0,5.978998E-1,6.8398774E-1,7.8640215E-2,-3.8702585E-2,5.6322753E-1,1.282589E-1,-1.3993709E-1,-4.105059E-2,-1.0613614E-1,7.373033E-1,-1.0261249E-1,-1.6475286E-2,5.2183396E-1,6.556145E-1,1E0,1.3488199E-1,1E0,1.3448803E-1,1E0,1.4202824E-1,-1.3818431E-1,-8.118705E-2,-4.975157E-2,9.761178E-2,-4.5086235E-2,6.7612156E-2,4.821242E-2,1.19787216E-1,9.1024004E-2,3.503355E-3,-4.8410278E-4,-8.42508E-2,-1.1345147E-1,-1.5568978E-2,-4.946598E-2,6.2614135E-2,-8.562858E-3,1.0286563E-1,8.335947E-3,8.721811E-2,6.58146E-2,1.3531788E-1],"split_indices":[0,1,1,1,0,0,1,1,0,1,0,2,1,0,0,0,0,0,2,0,0,0,0,0,0,1,0,2,0,1,1,0,2,0,1,0,0,0,0,0,0,0,0,0,0,1,0,2,0,2,0,2,0,0,0,0,0,0,0,0,0,0,0,0,0,0,0,0,0,0,0,0,0,0,0],"split_type":[0,0,0,0,0,0,0,0,0,0,0,0,0,0,0,0,0,0,0,0,0,0,0,0,0,0,0,0,0,0,0,0,0,0,0,0,0,0,0,0,0,0,0,0,0,0,0,0,0,0,0,0,0,0,0,0,0,0,0,0,0,0,0,0,0,0,0,0,0,0,0,0,0,0,0],"sum_hessian":[1.6895461E3,8.2038745E2,8.6915875E2,7.857873E2,3.4600143E1,4.8025524E1,8.211332E2,7.5708923E2,2.8698082E1,9.4206085E0,2.5179533E1,4.09432E1,7.0823255E0,4.377676E1,7.7735645E2,6.9538574E2,6.1703445E1,1.7776913E1,1.0921168E1,7.734292E0,1.6863167E0,3.175815E0,2.200372E1,3.244535E1,8.497847E0,3.2840312E0,3.7982945E0,9.019615E0,3.4757145E1,3.3283073E1,7.4407336E2,5.663826E1,5.0651855E0,4.816951E0,6.104218E0,1.6870974E0,1.4887178E0,5.928709E0,1.607501E1,3.1303297E1,1.1420548E0,5.1768036E0,3.3210435E0,2.0374038E0,1.2466273E0,5.879473E0,3.140142E0,1.7252232E1,1.7504913E1,9.069642E0,2.4213432E1,3.4610928E1,7.0946246E2,4.8008175E1,8.630085E0,3.6339998E0,1.4311855E0,2.9605384E0,1.8564123E0,2.2977967E0,3.806421E0,4.5691895E0,1.3595196E0,2.0040827E0,1.3169608E0,4.6345296E0,1.2449436E0,1.7143927E0,1.4257494E0,7.1382957E0,1.0113935E1,4.614109E0,4.4555326E0,1.0469182E1,2.4141747E1],"tree_param":{"num_deleted":"0","num_feature":"3","num_nodes":"75","size_leaf_vector":"1"}},{"base_weights":[2.0131538E-5,-1.2508054E0,1.1623772E0,-1.3346097E0,1.21846735E-1,-1.0612048E0,1.3013582E0,-1.3522798E-1,-8.9943266E-1,-1.1857059E0,9.0632784E-1,-1.2658556E0,1.4022023E-2,6.083082E-1,1.340413E0,-1.207666E0,5.221922E-1,-1.2590777E0,-1.2597978E-2,4.7350967E-1,1.17172875E-1,-1.3436383E-1,-8.598351E-1,-8.371742E-1,7.698969E-1,-6.123696E-1,9.388385E-1,1.0705765E0,1.3523666E0,-2.308685E-2,-1.2732013E-1,6.45859E-1,-1.4008245E-3,-1.3064429E-1,-3.134088E-2,-4.5412872E-2,6.792363E-1,-1.0312579E0,-3.8030198E-1,-1.040985E-1,-1.5569481E-2,1.02312185E-1,3.3259946E-1,-9.217977E-1,4.1753966E-2,5.457119E-1,1.284896E-1,-1.06612265E-1,1.1894537E0,1.1052228E0,1.3629554E-1,2.136242E-2,7.900892E-2,-8.711534E-3,8.591198E-2,-3.127594E-2,-1.14007704E-1,1.341095E-2,-6.230489E-2,8.850759E-3,4.2697784E-2,-1.0705507E-1,-1.4714143E-2,-4.642688E-2,5.9320252E-2,-7.8112097E-3,9.6642524E-2,-6.549826E-2,5.148373E-2,7.014594E-2,1.2958947E-1,6.091393E-2,1.2933621E-1],"categories":[],"categories_nodes":[],"categories_segments":[],"categories_sizes":[],"default_left":[0,0,0,0,0,0,0,0,0,0,0,0,0,0,0,0,0,0,0,0,0,0,0,0,0,0,0,0,0,0,0,0,0,0,0,0,0,0,0,0,0,0,0,0,0,0,0,0,0,0,0,0,0,0,0,0,0,0,0,0,0,0,0,0,0,0,0,0,0,0,0,0,0],"id":6,"left_children":[1,3,5,7,9,11,13,-1,15,17,19,21,23,25,27,29,31,33,-1,35,-1,-1,37,39,41,43,45,47,49,-1,-1,51,-1,-1,-1,-1,53,55,57,-1,-1,-1,59,61,63,65,-1,67,69,71,-1,-1,-1,-1,-1,-1,-1,-1,-1,-1,-1,-1,-1,-1,-1,-1,-1,-1,-1,-1,-1,-1,-1],"loss_changes":[2.3207134E3,8.8605225E1,2.5706287E2,4.356201E0,4.7392563E1,1.0848648E1,2.0273315E1,0E0,1.4329893E1,1.1916332E0,2.7522259E0,1.5094757E-1,6.3446746E0,1.8083363E1,9.284668E-1,1.3700752E0,4.2472804E-1,3.130455E-1,0E0,2.7171185E0,0E0,0E0,3.8274574E-1,4.8322606E-1,2.3701286E-1,2.0325172E0,3.9981728E0,5.1719284E0,3.2995605E-1,0E0,0E0,1.5010095E-1,0E0,0E0,0E0,0E0,1.5541592E0,1.4072227E-1,5.913795E-1,0E0,0E0,0E0,4.0385097E-2,6.1814594E-1,1.4251777E0,4.77596E0,0E0,1.7768424E0,7.961197E-1,2.3963852E0,0E0,0E0,0E0,0E0,0E0,0E0,0E0,0E0,0E0,0E0,0E0,0E0,0E0,0E0,0E0,0E0,0E0,0E0,0E0,0E0,0E0,0E0,0E0],"parents":[2147483647,0,0,1,1,2,2,3,3,4,4,5,5,6,6,8,8,9,9,10,10,11,11,12,12,13,13,14,14,15,15,16,16,17,17,19,19,22,22,23,23,24,24,25,25,26,26,27,27,28,28,31,31,36,36,37,37,38,38,42,42,43,43,44,44,45,45,47,47,48,48,49,49],"right_children":[2,4,6,8,10,12,14,-1,16,18,20,22,24,26,28,30,32,34,-1,36,-1,-1,38,40,42,44,46,48,50,-1,-1,52,-1,-1,-1,-1,54,56,58,-1,-1,-1,60,62,64,66,-1,68,70,72,-1,-1,-1,-1,-1,-1,-1,-1,-1,-1,-1,-1,-1,-1,-1,-1,-1,-1,-1,-1,-1,-1,-1],"split_conditions":[6.182021E-1,7.001699E-1,4.1304368E-1,6.2594944E-1,5.018518E-1,7.826456E-1,5.3995395E-1,-1.3522798E-1,5.6796426E-1,8.869372E-1,1E0,1E0,3.3333534E-1,6.867215E-1,6.556145E-1,6.292129E-1,6.088841E-1,4.9222702E-1,-1.2597978E-2,5.2705956E-1,1.17172875E-1,-1.3436383E-1,7.032248E-1,2.951131E-1,3.7172937E-1,1E0,7.967305E-1,6.3242036E-1,5.911231E-1,-2.308685E-2,-1.2732013E-1,1E0,-1.4008245E-3,-1.3064429E-1,-3.134088E-2,-4.5412872E-2,7.4153566E-1,6.328668E-1,7.177924E-1,-1.040985E-1,-1.5569481E-2,1.02312185E-1,8.1669676E-1,5.2183396E-1,6.556145E-1,1E0,1.284896E-1,1E0,7.14343E-1,1E0,1.3629554E-1,2.136242E-2,7.900892E-2,-8.711534E-3,8.591198E-2,-3.127594E-2,-1.14007704E-1,1.341095E-2,-6.230489E-2,8.850759E-3,4.2697784E-2,-1.0705507E-1,-1.4714143E-2,-4.642688E-2,5.9320252E-2,-7.8112097E-3,9.6642524E-2,-6.549826E-2,5.148373E-2,7.014594E-2,1.2958947E-1,6.091393E-2,1.2933621E-1],"split_indices":[0,1,1,1,0,0,1,0,0,1,2,2,1,0,0,1,0,0,0,0,0,0,0,1,1,2,0,1,1,0,0,2,0,0,0,0,1,0,0,0,0,0,0,1,0,2,0,2,1,2,0,0,0,0,0,0,0,0,0,0,0,0,0,0,0,0,0,0,0,0,0,0,0],"split_type":[0,0,0,0,0,0,0,0,0,0,0,0,0,0,0,0,0,0,0,0,0,0,0,0,0,0,0,0,0,0,0,0,0,0,0,0,0,0,0,0,0,0,0,0,0,0,0,0,0,0,0,0,0,0,0,0,0,0,0,0,0,0,0,0,0,0,0,0,0,0,0,0,0],"sum_hessian":[1.5941921E3,7.6783746E2,8.263546E2,7.236823E2,4.4155167E1,4.8221066E1,7.7813354E2,6.934192E2,3.0263123E1,1.6365734E1,2.7789433E1,4.0361637E1,7.859428E0,4.2394558E1,7.35739E2,2.4994398E1,5.2687244E0,1.5130065E1,1.2356697E0,1.1621353E1,1.616808E1,3.1934538E1,8.427099E0,3.6460397E0,4.2133884E0,8.851712E0,3.3542847E1,3.505178E1,7.0068726E2,1.8558508E0,2.3138548E1,4.115121E0,1.1536034E0,1.40450945E1,1.0849704E0,1.8903174E0,9.731035E0,5.360346E0,3.0667531E0,2.4005632E0,1.2454765E0,1.8198969E0,2.3934915E0,5.7313366E0,3.1203754E0,1.690989E1,1.663296E1,3.2244666E0,3.1827312E1,3.311688E1,6.675704E2,1.6503673E0,2.4647539E0,1.9479525E0,7.783083E0,1.214633E0,4.145713E0,1.1266893E0,1.9400638E0,1.2077274E0,1.1857641E0,4.4876328E0,1.2437036E0,1.7096503E0,1.410725E0,7.138871E0,9.771017E0,1.6842852E0,1.5401814E0,7.058175E0,2.4769138E1,1.0271306E1,2.2845572E1],"tree_param":{"num_deleted":"0","num_feature":"3","num_nodes":"73","size_leaf_vector":"1"}},{"base_weights":[6.936853E-5,-1.2036843E0,1.1170533E0,-1.2860034E0,1.1353436E-1,-1.0128688E0,1.2518467E0,-1.308489E-1,-9.092757E-1,-1.1340691E0,8.5100734E-1,-1.2013346E0,8.629515E-2,5.7033E-1,1.2914213E0,-1.279455E-1,2.8524303E-1,-1.2081305E0,-1.1909524E-2,4.3849444E-1,1.1089965E-1,-1.2729304E0,-8.3114797E-1,-7.346648E-1,7.981003E-1,-5.73528E-1,8.8547623E-1,1.0178077E0,1.3037748E0,-1.3688283E-1,7.3455167E-1,-1.2557328E-1,-2.988006E-2,-3.2131645E-1,6.7210513E-1,-1.2930378E-1,-3.7332248E-2,-9.8661405E-1,-4.08973E-1,-9.364179E-2,-1.471445E-2,3.481641E-2,9.7419895E-2,-8.6940217E-1,4.1014194E-2,5.0696206E-1,1.22978546E-1,-9.95598E-2,1.1356809E0,1.0216222E0,1.3136296E-1,-5.3307008E-2,4.4116E-2,9.014809E-2,2.9611737E-2,-3.1756784E-3,-4.477084E-2,-3.2313764E-2,8.9014865E-2,-2.9796546E-2,-1.09320186E-1,8.473002E-4,-7.8307584E-2,-1.0135334E-1,-1.3907053E-2,-4.360281E-2,5.6250006E-2,-7.1257832E-3,9.099613E-2,-6.124599E-2,4.8917692E-2,6.544655E-2,1.24509834E-1,3.855146E-2,1.2772322E-1],"categories":[],"categories_nodes":[],"categories_segments":[],"categories_sizes":[],"default_left":[0,0,0,0,0,0,0,0,0,0,0,0,0,0,0,0,0,0,0,0,0,0,0,0,0,0,0,0,0,0,0,0,0,0,0,0,0,0,0,0,0,0,0,0,0,0,0,0,0,0,0,0,0,0,0,0,0,0,0,0,0,0,0,0,0,0,0,0,0,0,0,0,0,0,0],"id":7,"left_children":[1,3,5,7,9,11,13,-1,15,17,19,21,23,25,27,-1,29,31,-1,33,-1,35,37,39,41,43,45,47,49,51,53,-1,-1,55,57,-1,-1,59,61,-1,-1,-1,-1,63,65,67,-1,69,71,73,-1,-1,-1,-1,-1,-1,-1,-1,-1,-1,-1,-1,-1,-1,-1,-1,-1,-1,-1,-1,-1,-1,-1,-1,-1],"loss_changes":[2.0162432E3,7.840552E1,2.2457507E2,4.5651855E0,4.086922E1,9.808216E0,1.900476E1,0E0,1.873465E1,1.0995293E0,2.4754162E0,3.6621094E-3,5.138402E0,1.5634341E1,1.0085449E0,0E0,2.1197195E0,2.8736687E-1,0E0,2.4101899E0,0E0,9.0408325E-2,2.1169043E-1,3.5273075E-1,2.9377699E-2,1.7940516E0,3.7152424E0,4.6450844E0,4.864502E-1,1.6852726E0,1.2197685E-1,0E0,0E0,1.1693287E-1,2.4095979E0,0E0,0E0,1.2512398E-1,6.673276E-1,0E0,0E0,0E0,0E0,5.5093336E-1,1.2646804E0,4.1565313E0,0E0,1.5687375E0,8.282623E-1,3.847458E0,0E0,0E0,0E0,0E0,0E0,0E0,0E0,0E0,0E0,0E0,0E0,0E0,0E0,0E0,0E0,0E0,0E0,0E0,0E0,0E0,0E0,0E0,0E0,0E0,0E0],"parents":[2147483647,0,0,1,1,2,2,3,3,4,4,5,5,6,6,8,8,9,9,10,10,11,11,12,12,13,13,14,14,16,16,17,17,19,19,21,21,22,22,23,23,24,24,25,25,26,26,27,27,28,28,29,29,30,30,33,33,34,34,37,37,38,38,43,43,44,44,45,45,47,47,48,48,49,49],"right_children":[2,4,6,8,10,12,14,-1,16,18,20,22,24,26,28,-1,30,32,-1,34,-1,36,38,40,42,44,46,48,50,52,54,-1,-1,56,58,-1,-1,60,62,-1,-1,-1,-1,64,66,68,-1,70,72,74,-1,-1,-1,-1,-1,-1,-1,-1,-1,-1,-1,-1,-1,-1,-1,-1,-1,-1,-1,-1,-1,-1,-1,-1,-1],"split_conditions":[6.182021E-1,7.001699E-1,4.1304368E-1,5.7807E-1,5.018518E-1,7.93299E-1,5.3995395E-1,-1.308489E-1,5.455126E-1,8.869372E-1,1E0,1E0,3.3333534E-1,6.867215E-1,6.556145E-1,-1.279455E-1,1E0,4.9222702E-1,-1.1909524E-2,7.4153566E-1,1.1089965E-1,7.718977E-1,7.032248E-1,2.951131E-1,8.262642E-1,1E0,7.967305E-1,6.3242036E-1,5.8278126E-1,5.978998E-1,6.7260784E-1,-1.2557328E-1,-2.988006E-2,7.169853E-1,5.3036565E-1,-1.2930378E-1,-3.7332248E-2,6.328668E-1,7.373033E-1,-9.364179E-2,-1.471445E-2,3.481641E-2,9.7419895E-2,5.2183396E-1,6.556145E-1,1E0,1.22978546E-1,1E0,7.14343E-1,1E0,1.3136296E-1,-5.3307008E-2,4.4116E-2,9.014809E-2,2.9611737E-2,-3.1756784E-3,-4.477084E-2,-3.2313764E-2,8.9014865E-2,-2.9796546E-2,-1.09320186E-1,8.473002E-4,-7.8307584E-2,-1.0135334E-1,-1.3907053E-2,-4.360281E-2,5.6250006E-2,-7.1257832E-3,9.099613E-2,-6.124599E-2,4.8917692E-2,6.544655E-2,1.24509834E-1,3.855146E-2,1.2772322E-1],"split_indices":[0,1,1,0,0,0,1,0,1,1,2,2,1,0,0,0,2,0,0,1,0,0,0,1,0,2,0,1,1,0,1,0,0,1,0,0,0,0,0,0,0,0,0,1,0,2,0,2,1,2,0,0,0,0,0,0,0,0,0,0,0,0,0,0,0,0,0,0,0,0,0,0,0,0,0],"split_type":[0,0,0,0,0,0,0,0,0,0,0,0,0,0,0,0,0,0,0,0,0,0,0,0,0,0,0,0,0,0,0,0,0,0,0,0,0,0,0,0,0,0,0,0,0,0,0,0,0,0,0,0,0,0,0,0,0,0,0,0,0,0,0,0,0,0,0,0,0,0,0,0,0,0,0],"sum_hessian":[1.4975411E3,7.207375E2,7.768036E2,6.7836694E2,4.2370564E1,4.58468E1,7.309568E2,6.3782404E2,4.054291E1,1.5541241E1,2.6829323E1,3.9057014E1,6.7897844E0,4.0961803E1,6.89995E2,3.089691E1,9.646002E0,1.4306972E1,1.2342691E0,1.1361871E1,1.5467451E1,3.068398E1,8.373035E0,3.1382134E0,3.651571E0,8.6706915E0,3.2291115E1,3.3409622E1,6.565854E2,5.3319645E0,4.3140373E0,1.3233281E1,1.0736904E0,2.5835447E0,8.778326E0,2.9585373E1,1.0986073E0,5.142374E0,3.230661E0,1.8939781E0,1.2442354E0,1.8645915E0,1.7869796E0,5.572885E0,3.0978067E0,1.6559229E1,1.5731884E1,3.202951E0,3.020667E1,2.5691078E1,6.308943E2,3.2097926E0,2.1221716E0,2.3595333E0,1.9545041E0,1.1652509E0,1.4182937E0,1.4909613E0,7.287365E0,1.1979679E0,3.9444063E0,1.9887961E0,1.2418648E0,4.3304896E0,1.2423952E0,1.7034273E0,1.3943793E0,7.1391783E0,9.420051E0,1.6901866E0,1.5127645E0,6.8892508E0,2.3317421E1,8.083301E0,1.7607777E1],"tree_param":{"num_deleted":"0","num_feature":"3","num_nodes":"75","size_leaf_vector":"1"}},{"base_weights":[4.811946E-5,-1.1634487E0,1.0776262E0,-1.2447785E0,1.0547745E-1,-9.7071993E-1,1.209131E0,-1.2765397E-1,-9.501392E-1,-1.0881563E0,8.003014E-1,-1.1725082E0,1.6692309E-2,5.357672E-1,1.2495216E0,-1.2018491E0,7.030884E-2,-1.1634266E0,-1.1259088E-2,4.0524918E-1,1.0526085E0,-1.2521413E-1,-7.8155327E-1,-7.630386E-1,7.0058614E-1,-5.3809553E-1,8.369131E-1,9.70142E-1,1.2624041E0,-1.2437262E-1,-6.20492E-1,-4.138501E-1,7.9781926E-1,-1.2117564E-1,-2.8492704E-2,-3.0248392E-1,6.2950414E-1,3.0728519E-2,1.084239E-1,-9.460028E-1,-3.4171417E-1,-9.603919E-2,-1.3907204E-2,9.530798E-2,2.863948E-1,-8.217434E-1,4.0320884E-2,4.7137317E-1,1.181516E-1,-9.290177E-2,1.0874512E0,9.98794E-1,1.2742482E-1,8.206269E-3,-8.468468E-2,-7.2693974E-2,4.1156452E-2,2.2819264E-2,8.895359E-2,-3.0056403E-3,-4.2118773E-2,-3.0424615E-2,8.406868E-2,-2.83913E-2,-1.0511362E-1,1.2624176E-2,-5.7100374E-2,7.2987266E-3,3.7132155E-2,-9.620793E-2,-1.314492E-2,-4.097307E-2,5.3380083E-2,-6.500674E-3,8.58152E-2,-5.7339992E-2,4.6501707E-2,6.109075E-2,1.2008118E-1,5.233689E-2,1.1955682E-1],"categories":[],"categories_nodes":[],"categories_segments":[],"categories_sizes":[],"default_left":[0,0,0,0,0,0,0,0,0,0,0,0,0,0,0,0,0,0,0,0,0,0,0,0,0,0,0,0,0,0,0,0,0,0,0,0,0,0,0,0,0,0,0,0,0,0,0,0,0,0,0,0,0,0,0,0,0,0,0,0,0,0,0,0,0,0,0,0,0,0,0,0,0,0,0,0,0,0,0,0,0],"id":8,"left_children":[1,3,5,7,9,11,13,-1,15,17,19,21,23,25,27,29,31,33,-1,35,37,-1,39,41,43,45,47,49,51,-1,53,55,57,-1,-1,59,61,-1,-1,63,65,-1,-1,-1,67,69,71,73,-1,75,77,79,-1,-1,-1,-1,-1,-1,-1,-1,-1,-1,-1,-1,-1,-1,-1,-1,-1,-1,-1,-1,-1,-1,-1,-1,-1,-1,-1,-1,-1],"loss_changes":[1.7593242E3,6.976361E1,1.9741278E2,4.7216187E0,3.5341194E1,8.886982E0,1.7961304E1,0E0,1.6939255E1,1.0230465E0,2.2493362E0,1.7226791E-1,5.0872965E0,1.3552423E1,1.0984497E0,5.1107025E-1,5.2361145E0,2.696514E-1,0E0,2.109148E0,3.8301468E-2,0E0,3.2166576E-1,4.1662955E-1,2.5723267E-1,1.5888097E0,3.4781246E0,4.1878624E0,6.435547E-1,0E0,9.49878E-1,2.630523E0,1.0562062E-1,0E0,0E0,1.0325307E-1,2.1300778E0,0E0,0E0,1.1395025E-1,5.0040954E-1,0E0,0E0,0E0,3.3606797E-2,4.9438143E-1,1.1233187E0,3.625766E0,0E0,1.3867671E0,8.651047E-1,2.2757835E0,0E0,0E0,0E0,0E0,0E0,0E0,0E0,0E0,0E0,0E0,0E0,0E0,0E0,0E0,0E0,0E0,0E0,0E0,0E0,0E0,0E0,0E0,0E0,0E0,0E0,0E0,0E0,0E0,0E0],"parents":[2147483647,0,0,1,1,2,2,3,3,4,4,5,5,6,6,8,8,9,9,10,10,11,11,12,12,13,13,14,14,15,15,16,16,17,17,19,19,20,20,22,22,23,23,24,24,25,25,26,26,27,27,28,28,30,30,31,31,32,32,35,35,36,36,39,39,40,40,44,44,45,45,46,46,47,47,49,49,50,50,51,51],"right_children":[2,4,6,8,10,12,14,-1,16,18,20,22,24,26,28,30,32,34,-1,36,38,-1,40,42,44,46,48,50,52,-1,54,56,58,-1,-1,60,62,-1,-1,64,66,-1,-1,-1,68,70,72,74,-1,76,78,80,-1,-1,-1,-1,-1,-1,-1,-1,-1,-1,-1,-1,-1,-1,-1,-1,-1,-1,-1,-1,-1,-1,-1,-1,-1,-1,-1,-1,-1],"split_conditions":[6.182021E-1,7.001699E-1,4.1304368E-1,5.5384654E-1,5.018518E-1,7.826456E-1,5.3995395E-1,-1.2765397E-1,5.363694E-1,8.869372E-1,1E0,1E0,3.3333534E-1,6.867215E-1,6.556145E-1,5.018518E-1,1E0,4.9222702E-1,-1.1259088E-2,7.4153566E-1,7.0910555E-1,-1.2521413E-1,7.032248E-1,2.951131E-1,3.7172937E-1,1E0,7.967305E-1,6.3242036E-1,5.911231E-1,-1.2437262E-1,5.8786243E-1,5.978998E-1,6.042269E-1,-1.2117564E-1,-2.8492704E-2,7.169853E-1,5.3036565E-1,3.0728519E-2,1.084239E-1,6.328668E-1,7.177924E-1,-9.603919E-2,-1.3907204E-2,9.530798E-2,8.1669676E-1,5.2183396E-1,6.556145E-1,1E0,1.181516E-1,1E0,7.14343E-1,1E0,1.2742482E-1,8.206269E-3,-8.468468E-2,-7.2693974E-2,4.1156452E-2,2.2819264E-2,8.895359E-2,-3.0056403E-3,-4.2118773E-2,-3.0424615E-2,8.406868E-2,-2.83913E-2,-1.0511362E-1,1.2624176E-2,-5.7100374E-2,7.2987266E-3,3.7132155E-2,-9.620793E-2,-1.314492E-2,-4.097307E-2,5.3380083E-2,-6.500674E-3,8.58152E-2,-5.7339992E-2,4.6501707E-2,6.109075E-2,1.2008118E-1,5.233689E-2,1.1955682E-1],"split_indices":[0,1,1,1,0,0,1,0,0,1,2,2,1,0,0,0,2,0,0,1,1,0,0,1,1,2,0,1,1,0,1,0,1,0,0,1,0,0,0,0,0,0,0,0,0,1,0,2,0,2,1,2,0,0,0,0,0,0,0,0,0,0,0,0,0,0,0,0,0,0,0,0,0,0,0,0,0,0,0,0,0],"split_type":[0,0,0,0,0,0,0,0,0,0,0,0,0,0,0,0,0,0,0,0,0,0,0,0,0,0,0,0,0,0,0,0,0,0,0,0,0,0,0,0,0,0,0,0,0,0,0,0,0,0,0,0,0,0,0,0,0,0,0,0,0,0,0,0,0,0,0,0,0,0,0,0,0,0,0,0,0,0,0,0,0],"sum_hessian":[1.4012399E3,6.737211E2,7.2751874E2,6.331588E2,4.056232E1,4.350433E1,6.840144E2,5.6853955E2,6.461925E1,1.4715891E1,2.584643E1,3.5966694E1,7.5376377E0,3.951488E1,6.444995E2,5.1691055E1,1.2928193E1,1.3483032E1,1.2328583E0,1.1089351E1,1.4757078E1,2.8050386E1,7.9163065E0,3.467965E0,4.069673E0,8.48198E0,3.1032902E1,3.17721E1,6.127274E2,4.715498E1,4.5360756E0,8.021211E0,4.906982E0,1.2420391E1,1.0626417E0,2.5843818E0,8.504969E0,1.0369849E0,1.3720094E1,4.9243646E0,2.991942E0,2.225039E0,1.2429259E0,1.7200545E0,2.3496184E0,5.408865E0,3.073115E0,1.620801E1,1.4824892E1,3.1783452E0,2.8593754E1,3.0015116E1,5.827123E2,1.2606767E0,3.2753987E0,5.901866E0,2.1193445E0,1.1642383E0,3.7427437E0,1.164663E0,1.4197189E0,1.4874564E0,7.0175123E0,1.1818743E0,3.7424903E0,1.1316943E0,1.8602476E0,1.1981843E0,1.1514341E0,4.1678276E0,1.241037E0,1.6960429E0,1.3770722E0,7.139278E0,9.068732E0,1.6927475E0,1.4855978E0,6.7225666E0,2.187119E1,9.857706E0,2.015741E1],"tree_param":{"num_deleted":"0","num_feature":"3","num_nodes":"81","size_leaf_vector":"1"}},{"base_weights":[2.1348864E-5,-1.1286393E0,1.0430683E0,-1.2095026E0,9.8841175E-2,-9.316928E-1,1.171726E0,-1.24237195E-1,-9.097874E-1,-1.0467485E0,7.548163E-1,-1.1188468E0,8.413126E-2,5.0398993E-1,1.2131935E0,-1.1631659E0,7.017212E-2,-1.123654E0,-1.0644504E-2,3.7470135E-1,1.0030609E0,-1.193169E0,-7.587467E-1,-6.673615E-1,7.301486E-1,-1.8139692E-1,9.485876E-1,8.922395E-1,1.2251425E0,-1.2070032E-1,-5.853109E-1,-3.828072E-1,7.49336E-1,-1.1731239E-1,-2.7174378E-2,-3.946167E-2,5.580255E-1,2.9324371E-2,1.03408575E-1,-1.2139726E-1,-3.414527E-2,-9.086982E-1,-3.6876383E-1,-8.6198024E-2,-1.3144906E-2,3.0736238E-2,9.035354E-2,-6.022724E-1,3.257326E-1,5.1372844E-1,1.15230106E-1,2.6239288E-1,1.20031856E-1,9.5303416E-1,1.2379207E-1,7.7340687E-3,-8.0554895E-2,-6.7969464E-2,3.8414273E-2,2.159528E-2,8.36384E-2,-4.394044E-3,7.108136E-2,-2.7055843E-2,-1.0129755E-1,1.9416912E-3,-7.316448E-2,-7.9396784E-2,6.633782E-3,-3.8519874E-2,5.767104E-2,-4.356896E-3,1.0474336E-1,-2.0711554E-2,1.04990244E-1,-1.3653146E-2,1.0435613E-1],"categories":[],"categories_nodes":[],"categories_segments":[],"categories_sizes":[],"default_left":[0,0,0,0,0,0,0,0,0,0,0,0,0,0,0,0,0,0,0,0,0,0,0,0,0,0,0,0,0,0,0,0,0,0,0,0,0,0,0,0,0,0,0,0,0,0,0,0,0,0,0,0,0,0,0,0,0,0,0,0,0,0,0,0,0,0,0,0,0,0,0,0,0,0,0,0,0],"id":9,"left_children":[1,3,5,7,9,11,13,-1,15,17,19,21,23,25,27,29,31,33,-1,35,37,39,41,43,45,47,49,51,53,-1,55,57,59,-1,-1,-1,61,-1,-1,-1,-1,63,65,-1,-1,-1,-1,67,69,71,-1,73,-1,75,-1,-1,-1,-1,-1,-1,-1,-1,-1,-1,-1,-1,-1,-1,-1,-1,-1,-1,-1,-1,-1,-1,-1],"loss_changes":[1.5410027E3,6.2522522E1,1.7393335E2,4.6811523E0,3.068494E1,8.110928E0,1.7085693E1,0E0,1.5485325E1,9.581623E-1,2.0659866E0,4.9545288E-2,4.123685E0,1.2080857E1,1.2119141E0,5.43602E-1,4.497914E0,2.574215E-1,0E0,1.887186E0,2.836132E-2,7.854843E-2,1.8246269E-1,3.023225E-1,5.2557707E-2,3.6573029E0,1.5221386E0,4.5852985E0,8.257446E-1,0E0,8.534752E-1,2.2815013E0,8.9360714E-2,0E0,0E0,0E0,9.4722724E-1,0E0,0E0,0E0,0E0,1.0585928E-1,5.9751153E-1,0E0,0E0,0E0,0E0,1.2334478E0,1.6501802E0,2.84677E0,0E0,3.7576385E0,0E0,3.1229038E0,0E0,0E0,0E0,0E0,0E0,0E0,0E0,0E0,0E0,0E0,0E0,0E0,0E0,0E0,0E0,0E0,0E0,0E0,0E0,0E0,0E0,0E0,0E0],"parents":[2147483647,0,0,1,1,2,2,3,3,4,4,5,5,6,6,8,8,9,9,10,10,11,11,12,12,13,13,14,14,15,15,16,16,17,17,19,19,20,20,21,21,22,22,23,23,24,24,25,25,26,26,27,27,28,28,30,30,31,31,32,32,36,36,41,41,42,42,47,47,48,48,49,49,51,51,53,53],"right_children":[2,4,6,8,10,12,14,-1,16,18,20,22,24,26,28,30,32,34,-1,36,38,40,42,44,46,48,50,52,54,-1,56,58,60,-1,-1,-1,62,-1,-1,-1,-1,64,66,-1,-1,-1,-1,68,70,72,-1,74,-1,76,-1,-1,-1,-1,-1,-1,-1,-1,-1,-1,-1,-1,-1,-1,-1,-1,-1,-1,-1,-1,-1,-1,-1],"split_conditions":[6.182021E-1,7.001699E-1,4.1304368E-1,5.5384654E-1,5.018518E-1,7.93299E-1,5.3995395E-1,-1.24237195E-1,5.363694E-1,8.869372E-1,1E0,1E0,3.3333534E-1,7.469003E-1,5.8278126E-1,5.018518E-1,1E0,4.9222702E-1,-1.0644504E-2,5.2705956E-1,7.0910555E-1,7.718977E-1,7.032248E-1,2.951131E-1,8.262642E-1,1E0,1E0,1E0,6.556145E-1,-1.2070032E-1,5.8786243E-1,5.978998E-1,6.042269E-1,-1.1731239E-1,-2.7174378E-2,-3.946167E-2,7.4153566E-1,2.9324371E-2,1.03408575E-1,-1.2139726E-1,-3.414527E-2,6.328668E-1,7.373033E-1,-8.6198024E-2,-1.3144906E-2,3.0736238E-2,9.035354E-2,7.177924E-1,6.556145E-1,8.147011E-1,1.15230106E-1,7.93299E-1,1.20031856E-1,6.3242036E-1,1.2379207E-1,7.7340687E-3,-8.0554895E-2,-6.7969464E-2,3.8414273E-2,2.159528E-2,8.36384E-2,-4.394044E-3,7.108136E-2,-2.7055843E-2,-1.0129755E-1,1.9416912E-3,-7.316448E-2,-7.9396784E-2,6.633782E-3,-3.8519874E-2,5.767104E-2,-4.356896E-3,1.0474336E-1,-2.0711554E-2,1.04990244E-1,-1.3653146E-2,1.0435613E-1],"split_indices":[0,1,1,1,0,0,1,0,0,1,2,2,1,0,1,0,2,0,0,0,1,0,0,1,0,2,2,2,0,0,1,0,1,0,0,0,1,0,0,0,0,0,0,0,0,0,0,0,0,0,0,0,0,1,0,0,0,0,0,0,0,0,0,0,0,0,0,0,0,0,0,0,0,0,0,0,0],"split_type":[0,0,0,0,0,0,0,0,0,0,0,0,0,0,0,0,0,0,0,0,0,0,0,0,0,0,0,0,0,0,0,0,0,0,0,0,0,0,0,0,0,0,0,0,0,0,0,0,0,0,0,0,0,0,0,0,0,0,0,0,0,0,0,0,0,0,0,0,0,0,0,0,0,0,0,0,0],"sum_hessian":[1.3069895E3,6.276931E2,6.7929645E2,5.8891174E2,3.878137E1,4.116806E1,6.381284E2,5.2787524E2,6.103648E1,1.39039345E1,2.4877434E1,3.4677677E1,6.490384E0,3.8080902E1,6.000475E2,4.8348522E1,1.268796E1,1.2672487E1,1.2314475E0,1.0819658E1,1.40577755E1,2.6827274E1,7.8504043E0,2.9849918E0,3.505392E0,1.5216033E1,2.286487E1,2.4253506E1,5.75794E2,4.3927338E1,4.4211836E0,7.873174E0,4.8147855E0,1.1620635E1,1.0518519E0,1.8603119E0,8.959346E0,1.0264105E0,1.3031365E1,2.5772444E1,1.0548298E0,4.709475E0,3.1409292E0,1.7434255E0,1.2415663E0,1.8258756E0,1.6795164E0,8.212625E0,7.003408E0,8.417716E0,1.4447153E1,8.57474E0,1.5678765E1,2.92166E1,5.465774E2,1.2647222E0,3.1564615E0,5.75801E0,2.1151643E0,1.1638974E0,3.650888E0,1.9578955E0,7.0014505E0,1.1663616E0,3.5431135E0,1.9748676E0,1.1660615E0,6.2369537E0,1.9756706E0,1.6877676E0,5.3156404E0,4.567097E0,3.8506193E0,5.8337145E0,2.7410257E0,2.2022781E0,2.7014322E1],"tree_param":{"num_deleted":"0","num_feature":"3","num_nodes":"77","size_leaf_vector":"1"}},{"base_weights":[-1.6686881E-5,-1.0897713E0,1.019887E0,-1.1918076E0,-8.678097E-3,-8.7987995E-1,1.1403037E0,-1.2144108E-1,-9.5249075E-1,-1.081208E0,6.8580276E-1,-1.0903066E0,1.853702E-2,4.7634527E-1,1.1832936E0,-1.0765495E0,1.0910342E-1,-1.1378621E0,-1.0063738E-2,2.1547885E-1,9.234923E-1,-1.1811799E-1,-6.858188E-1,-6.994643E-1,6.405153E-1,-1.6979311E-1,9.075528E-1,8.929108E-1,1.1958318E0,-1.16763964E-1,-5.705938E-1,-3.3706534E-1,7.670089E-2,-1.1726493E-1,-3.322012E-2,-2.322558E-1,6.9693285E-1,6.2019295E-1,1.0432732E-1,-8.4088284E-1,-3.0799127E-1,-8.92778E-2,-1.2424964E-2,8.941329E-2,2.4592225E-1,-5.601941E-1,3.0104733E-1,4.8490942E-1,1.1127299E-1,3.3231476E-1,1.1199238E-1,9.113751E-1,1.209318E-1,-8.827119E-2,4.2297605E-2,-7.4556894E-3,-4.4570457E-2,-7.01664E-2,1.1990201E-2,8.489435E-2,3.0184587E-2,7.199517E-2,-6.646988E-4,-2.2867473E-2,-9.536489E-2,1.182128E-2,-5.245958E-2,5.973619E-3,3.223452E-2,-7.426272E-2,6.191922E-3,-3.6227774E-2,5.3948175E-2,-3.99844E-3,1.01022735E-1,6.3165456E-2,-2.4288332E-2,4.564142E-2,1.11890845E-1],"categories":[],"categories_nodes":[],"categories_segments":[],"categories_sizes":[],"default_left":[0,0,0,0,0,0,0,0,0,0,0,0,0,0,0,0,0,0,0,0,0,0,0,0,0,0,0,0,0,0,0,0,0,0,0,0,0,0,0,0,0,0,0,0,0,0,0,0,0,0,0,0,0,0,0,0,0,0,0,0,0,0,0,0,0,0,0,0,0,0,0,0,0,0,0,0,0,0,0],"id":10,"left_children":[1,3,5,7,9,11,13,-1,15,17,19,21,23,25,27,29,31,33,-1,35,37,-1,39,41,43,45,47,49,51,-1,53,55,-1,-1,-1,57,59,61,-1,63,65,-1,-1,-1,67,69,71,73,-1,75,-1,77,-1,-1,-1,-1,-1,-1,-1,-1,-1,-1,-1,-1,-1,-1,-1,-1,-1,-1,-1,-1,-1,-1,-1,-1,-1,-1,-1],"loss_changes":[1.353762E3,6.494574E1,1.4493573E2,1.7538452E0,3.931813E1,7.216913E0,1.6337097E1,0E0,6.843334E0,1.0378494E0,3.3836565E0,3.242607E-1,4.1132936E0,1.0652525E1,9.544678E-1,1.4453964E0,2.0935972E0,1.573391E-1,0E0,2.7622516E0,1.1532593E-1,0E0,2.1239424E-1,3.658445E-1,2.724626E-1,3.0957148E0,1.4337769E0,3.0559464E0,9.290161E-1,0E0,3.1476405E0,9.282082E-2,0E0,0E0,0E0,1.2413571E0,1.0785794E-1,5.3049636E-1,0E0,1.3584423E-1,4.238218E-1,0E0,0E0,0E0,2.7760655E-2,1.0736856E0,1.4399588E0,2.579734E0,0E0,1.7350756E0,0E0,2.1355076E0,0E0,0E0,0E0,0E0,0E0,0E0,0E0,0E0,0E0,0E0,0E0,0E0,0E0,0E0,0E0,0E0,0E0,0E0,0E0,0E0,0E0,0E0,0E0,0E0,0E0,0E0,0E0],"parents":[2147483647,0,0,1,1,2,2,3,3,4,4,5,5,6,6,8,8,9,9,10,10,11,11,12,12,13,13,14,14,15,15,16,16,17,17,19,19,20,20,22,22,23,23,24,24,25,25,26,26,27,27,28,28,30,30,31,31,35,35,36,36,37,37,39,39,40,40,44,44,45,45,46,46,47,47,49,49,51,51],"right_children":[2,4,6,8,10,12,14,-1,16,18,20,22,24,26,28,30,32,34,-1,36,38,-1,40,42,44,46,48,50,52,-1,54,56,-1,-1,-1,58,60,62,-1,64,66,-1,-1,-1,68,70,72,74,-1,76,-1,78,-1,-1,-1,-1,-1,-1,-1,-1,-1,-1,-1,-1,-1,-1,-1,-1,-1,-1,-1,-1,-1,-1,-1,-1,-1,-1,-1],"split_conditions":[6.217885E-1,6.6613024E-1,4.1304368E-1,5.4867524E-1,5.0457513E-1,7.826456E-1,5.3995395E-1,-1.2144108E-1,5.8668154E-1,8.869372E-1,5.725379E-1,1E0,3.3333534E-1,7.469003E-1,6.556145E-1,5.018518E-1,1E0,4.9222702E-1,-1.0063738E-2,1E0,7.4153566E-1,-1.1811799E-1,7.032248E-1,2.951131E-1,3.7172937E-1,1E0,1E0,7.14343E-1,5.911231E-1,-1.16763964E-1,1E0,5.9326464E-1,7.670089E-2,-1.1726493E-1,-3.322012E-2,7.3291636E-1,8.106297E-1,7.220087E-1,1.0432732E-1,6.372273E-1,7.177924E-1,-8.92778E-2,-1.2424964E-2,8.941329E-2,8.1669676E-1,7.177924E-1,6.556145E-1,8.147011E-1,1.1127299E-1,6.871567E-1,1.1199238E-1,1E0,1.209318E-1,-8.827119E-2,4.2297605E-2,-7.4556894E-3,-4.4570457E-2,-7.01664E-2,1.1990201E-2,8.489435E-2,3.0184587E-2,7.199517E-2,-6.646988E-4,-2.2867473E-2,-9.536489E-2,1.182128E-2,-5.245958E-2,5.973619E-3,3.223452E-2,-7.426272E-2,6.191922E-3,-3.6227774E-2,5.3948175E-2,-3.99844E-3,1.01022735E-1,6.3165456E-2,-2.4288332E-2,4.564142E-2,1.11890845E-1],"split_indices":[0,1,1,1,0,0,1,0,0,1,0,2,1,0,0,0,2,0,0,2,1,0,0,1,1,2,2,1,1,0,2,0,0,0,0,1,1,1,0,0,0,0,0,0,0,0,0,0,0,1,0,2,0,0,0,0,0,0,0,0,0,0,0,0,0,0,0,0,0,0,0,0,0,0,0,0,0,0,0],"split_type":[0,0,0,0,0,0,0,0,0,0,0,0,0,0,0,0,0,0,0,0,0,0,0,0,0,0,0,0,0,0,0,0,0,0,0,0,0,0,0,0,0,0,0,0,0,0,0,0,0,0,0,0,0,0,0,0,0,0,0,0,0,0,0,0,0,0,0,0,0,0,0,0,0,0,0,0,0,0,0],"sum_hessian":[1.2160201E3,5.878457E2,6.2817444E2,5.370547E2,5.0791042E1,3.7067562E1,5.911069E2,4.8698502E2,5.0069637E1,1.9743332E1,3.104771E1,2.986015E1,7.207411E0,3.6680138E1,5.5442676E2,4.481807E1,5.2515664E0,1.8513287E1,1.2300451E0,1.1063188E1,1.9984524E1,2.2814417E1,7.0457325E0,3.2876375E0,3.9197733E0,1.4923864E1,2.1756271E1,2.5937304E1,5.2848944E2,3.6872005E1,7.9460626E0,3.419946E0,1.8316203E0,1.731034E1,1.2029452E0,6.000519E0,5.0626683E0,7.4069567E0,1.2577566E1,4.126574E0,2.919159E0,2.0474641E0,1.2401735E0,1.6154867E0,2.3042867E0,8.055123E0,6.8687415E0,8.209313E0,1.3546958E1,8.186085E0,1.7751217E1,2.702589E1,5.0146356E2,6.1315002E0,1.8145624E0,1.4946514E0,1.9252944E0,2.1466606E0,3.8538585E0,2.8264391E0,2.2362294E0,6.261867E0,1.1450897E0,1.1128368E0,3.013737E0,1.1367223E0,1.7824366E0,1.1890663E0,1.1152203E0,6.0788107E0,1.9763125E0,1.6788301E0,5.1899114E0,4.5684433E0,3.6408696E0,5.319568E0,2.8665166E0,9.46834E0,1.755755E1],"tree_param":{"num_deleted":"0","num_feature":"3","num_nodes":"79","size_leaf_vector":"1"}},{"base_weights":[5.501026E-5,-1.0624254E0,9.9201477E-1,-1.1651177E0,-7.247147E-3,-4.6904597E-1,1.1426996E0,-1.1890507E-1,-9.16671E-1,-1.0475278E0,6.481657E-1,-1.0283555E0,1.0381334E-1,7.952821E-1,1.1676756E0,-1.13890946E-1,-2.8852683E-1,-1.1063887E0,-9.514872E-3,2.0203982E-1,8.7972426E-1,-1.0820814E-1,-2.3491263E-1,-3.6268848E-1,8.2543874E-1,2.4327911E-1,1.1213159E-1,6.625874E-1,1.17507E-1,-6.971022E-1,6.781229E-1,-1.1427393E-1,-3.1652715E-2,-2.1964659E-1,6.6053176E-1,5.7964885E-1,1.0034746E-1,-2.939013E-2,-6.059108E-3,-6.768667E-1,1.6215041E-1,9.253492E-2,2.3954196E-2,-4.490929E-1,8.1795985E-1,1.0958661E-1,-1.5517852E-1,-3.0965129E-2,-8.7740496E-2,-1.0787006E-2,9.833871E-2,-6.658306E-2,1.1065095E-2,8.063529E-2,2.8413748E-2,6.752588E-2,-6.291775E-4,-9.109341E-2,-4.186235E-3,-8.3328076E-2,4.9885985E-2,-1.4271932E-2,-1.0672785E-1,2.3504326E-2,1.0964997E-1,-6.5385066E-2,4.1113395E-2],"categories":[],"categories_nodes":[],"categories_segments":[],"categories_sizes":[],"default_left":[0,0,0,0,0,0,0,0,0,0,0,0,0,0,0,0,0,0,0,0,0,0,0,0,0,0,0,0,0,0,0,0,0,0,0,0,0,0,0,0,0,0,0,0,0,0,0,0,0,0,0,0,0,0,0,0,0,0,0,0,0,0,0,0,0,0,0],"id":11,"left_children":[1,3,5,7,9,11,13,-1,15,17,19,21,23,25,27,-1,29,31,-1,33,35,-1,37,39,41,43,-1,45,-1,47,49,-1,-1,51,53,55,-1,-1,-1,57,59,-1,-1,61,63,-1,65,-1,-1,-1,-1,-1,-1,-1,-1,-1,-1,-1,-1,-1,-1,-1,-1,-1,-1,-1,-1],"loss_changes":[1.1920488E3,5.916736E1,1.293147E2,1.8691406E0,3.4388577E1,1.7855755E1,3.6749268E0,0E0,6.385128E0,9.874115E-1,3.019434E0,9.445572E-1,9.8176985E0,6.695366E0,1.0620117E0,0E0,5.9656706E0,1.6266823E-1,0E0,2.4406364E0,1.6384602E-1,0E0,1.366508E-2,3.0560055E0,4.460659E-1,6.595923E0,0E0,3.501958E0,0E0,4.4569063E-1,1.21912E0,0E0,0E0,1.0957501E0,9.679294E-2,4.6527982E-1,0E0,0E0,0E0,1.6518626E0,2.9286213E0,0E0,0E0,1.3146447E0,1.1886935E0,0E0,1.4359283E0,0E0,0E0,0E0,0E0,0E0,0E0,0E0,0E0,0E0,0E0,0E0,0E0,0E0,0E0,0E0,0E0,0E0,0E0,0E0,0E0],"parents":[2147483647,0,0,1,1,2,2,3,3,4,4,5,5,6,6,8,8,9,9,10,10,11,11,12,12,13,13,14,14,16,16,17,17,19,19,20,20,22,22,23,23,24,24,25,25,27,27,29,29,30,30,33,33,34,34,35,35,39,39,40,40,43,43,44,44,46,46],"right_children":[2,4,6,8,10,12,14,-1,16,18,20,22,24,26,28,-1,30,32,-1,34,36,-1,38,40,42,44,-1,46,-1,48,50,-1,-1,52,54,56,-1,-1,-1,58,60,-1,-1,62,64,-1,66,-1,-1,-1,-1,-1,-1,-1,-1,-1,-1,-1,-1,-1,-1,-1,-1,-1,-1,-1,-1],"split_conditions":[6.217885E-1,6.6613024E-1,4.9564156E-1,5.4867524E-1,5.0457513E-1,3.4771734E-1,5.8278126E-1,-1.1890507E-1,5.018518E-1,8.869372E-1,5.725379E-1,8.262642E-1,7.7373403E-1,1E0,6.372273E-1,-1.13890946E-1,1E0,4.9222702E-1,-9.514872E-3,1E0,7.4153566E-1,-1.0820814E-1,8.762958E-1,1E0,4.7531214E-1,7.3033226E-1,1.1213159E-1,6.328668E-1,1.17507E-1,5.8786243E-1,5.7472444E-1,-1.1427393E-1,-3.1652715E-2,7.3291636E-1,8.106297E-1,7.220087E-1,1.0034746E-1,-2.939013E-2,-6.059108E-3,4.7189286E-1,6.556145E-1,9.253492E-2,2.3954196E-2,5.7472444E-1,7.967305E-1,1.0958661E-1,1E0,-3.0965129E-2,-8.7740496E-2,-1.0787006E-2,9.833871E-2,-6.658306E-2,1.1065095E-2,8.063529E-2,2.8413748E-2,6.752588E-2,-6.291775E-4,-9.109341E-2,-4.186235E-3,-8.3328076E-2,4.9885985E-2,-1.4271932E-2,-1.0672785E-1,2.3504326E-2,1.0964997E-1,-6.5385066E-2,4.1113395E-2],"split_indices":[0,1,1,1,0,1,1,0,0,1,0,0,0,2,0,0,2,0,0,2,1,0,0,2,1,0,0,0,0,1,1,0,0,1,1,1,0,0,0,1,0,0,0,1,0,0,2,0,0,0,0,0,0,0,0,0,0,0,0,0,0,0,0,0,0,0,0],"split_type":[0,0,0,0,0,0,0,0,0,0,0,0,0,0,0,0,0,0,0,0,0,0,0,0,0,0,0,0,0,0,0,0,0,0,0,0,0,0,0,0,0,0,0,0,0,0,0,0,0,0,0,0,0,0,0,0,0,0,0,0,0,0,0,0,0,0,0],"sum_hessian":[1.1290428E3,5.451094E2,5.839334E2,4.9666824E2,4.8441113E1,5.4395405E1,5.29538E2,4.4957486E2,4.7093395E1,1.849203E1,2.9949083E1,2.7120886E1,2.727452E1,3.7718094E1,4.9181992E2,3.418541E1,1.2907988E1,1.726337E1,1.2286581E0,1.0873153E1,1.9075932E1,2.5060215E1,2.06067E0,1.6867659E1,1.0406862E1,1.4653921E1,2.3064173E1,8.40364E0,4.834163E2,9.269064E0,3.6389232E0,1.6076736E1,1.1866341E0,5.935272E0,4.9378805E0,7.229508E0,1.1846423E1,1.0271277E0,1.0335422E0,1.0370199E1,6.4974585E0,8.395791E0,2.0110712E0,6.7455077E0,7.9084134E0,5.270883E0,3.1327567E0,3.8065655E0,5.4624987E0,1.1988256E0,2.4400976E0,2.0926094E0,3.8426626E0,2.7357125E0,2.2021677E0,6.08428E0,1.1452281E0,7.2596908E0,3.110509E0,1.2695237E0,5.227935E0,5.3332233E0,1.412284E0,3.153254E0,4.7551594E0,1.5836669E0,1.5490898E0],"tree_param":{"num_deleted":"0","num_feature":"3","num_nodes":"67","size_leaf_vector":"1"}},{"base_weights":[-2.3369674E-5,-1.0458941E0,9.5889187E-1,-1.1281991E0,8.838739E-2,-4.6821052E-1,1.1146373E0,-1.1668488E-1,-8.179206E-1,-9.386512E-1,6.4013034E-1,-1.0015141E0,8.20882E-2,7.439009E-1,1.1422886E0,-1.0762211E0,5.3941872E-2,-1.0224241E0,-8.996121E-3,2.9053327E-1,8.837853E-1,-1.0547974E0,-2.2384205E-1,-3.566603E-1,7.8149545E-1,2.0036958E-1,1.0877782E-1,8.2820994E-1,1.1583378E-1,-1.1236533E-1,-5.4092634E-1,-3.202762E-1,5.759159E-1,-1.078089E-1,-2.2943517E-2,-3.5651077E-2,4.5602947E-1,5.4809594E-1,1.07987046E-1,-1.1365085E-1,-6.544218E-1,-2.8045494E-2,-5.7537616E-3,-7.6940817E-1,1.1445608E-2,8.789467E-2,2.2541316E-2,-4.478599E-1,7.7802813E-1,2.6208574E-1,1.07035436E-1,-5.6059766E-3,-9.021618E-2,-7.9089545E-2,1.3047868E-2,1.4737539E-2,7.0318185E-2,-4.201959E-3,5.9429605E-2,9.293597E-2,-7.4895464E-2,-1.5506263E-2,-7.168927E-2,-9.042531E-2,-4.3294183E-3,-3.4997888E-2,4.863816E-2,-1.7638499E-2,-9.942404E-2,2.1836476E-2,1.0577005E-1,7.9247236E-2,-6.9441567E-3],"categories":[],"categories_nodes":[],"categories_segments":[],"categories_sizes":[],"default_left":[0,0,0,0,0,0,0,0,0,0,0,0,0,0,0,0,0,0,0,0,0,0,0,0,0,0,0,0,0,0,0,0,0,0,0,0,0,0,0,0,0,0,0,0,0,0,0,0,0,0,0,0,0,0,0,0,0,0,0,0,0,0,0,0,0,0,0,0,0,0,0,0,0],"id":12,"left_children":[1,3,5,7,9,11,13,-1,15,17,19,21,23,25,27,29,31,33,-1,35,37,39,41,43,45,47,-1,49,-1,-1,51,53,55,-1,-1,-1,57,59,-1,-1,61,-1,-1,63,65,-1,-1,67,69,71,-1,-1,-1,-1,-1,-1,-1,-1,-1,-1,-1,-1,-1,-1,-1,-1,-1,-1,-1,-1,-1,-1,-1],"loss_changes":[1.0515676E3,4.692041E1,1.22101074E2,4.6539917E0,2.0352745E1,1.6084549E1,4.2090454E0,0E0,1.2477089E1,8.029165E-1,1.7253666E0,9.1446304E-1,8.797293E0,6.719782E0,1.3460693E0,4.735527E-1,2.832372E0,2.5408173E-1,0E0,1.3455107E0,2.7850342E-1,9.757614E-2,1.2577698E-2,2.7049606E0,3.9876652E-1,6.193493E0,0E0,3.2484512E0,0E0,0E0,8.94359E-1,1.9144185E0,2.2457469E-1,0E0,0E0,0E0,6.6096807E-1,4.111414E0,0E0,0E0,9.835601E-2,0E0,0E0,7.813735E-1,1.9494683E0,0E0,0E0,1.0097909E0,1.1181588E0,1.6439888E0,0E0,0E0,0E0,0E0,0E0,0E0,0E0,0E0,0E0,0E0,0E0,0E0,0E0,0E0,0E0,0E0,0E0,0E0,0E0,0E0,0E0,0E0,0E0],"parents":[2147483647,0,0,1,1,2,2,3,3,4,4,5,5,6,6,8,8,9,9,10,10,11,11,12,12,13,13,14,14,15,15,16,16,17,17,19,19,20,20,21,21,22,22,23,23,24,24,25,25,27,27,30,30,31,31,32,32,36,36,37,37,40,40,43,43,44,44,47,47,48,48,49,49],"right_children":[2,4,6,8,10,12,14,-1,16,18,20,22,24,26,28,30,32,34,-1,36,38,40,42,44,46,48,-1,50,-1,-1,52,54,56,-1,-1,-1,58,60,-1,-1,62,-1,-1,64,66,-1,-1,68,70,72,-1,-1,-1,-1,-1,-1,-1,-1,-1,-1,-1,-1,-1,-1,-1,-1,-1,-1,-1,-1,-1,-1,-1],"split_conditions":[6.182021E-1,7.001699E-1,4.9564156E-1,5.4867524E-1,5.018518E-1,3.4771734E-1,5.8278126E-1,-1.1668488E-1,5.363694E-1,8.869372E-1,1E0,8.262642E-1,7.7373403E-1,1E0,6.556145E-1,5.018518E-1,1E0,4.9222702E-1,-8.996121E-3,5.2705956E-1,8.3222973E-1,1E0,8.762958E-1,6.867215E-1,4.7531214E-1,7.3033226E-1,1.0877782E-1,7.14343E-1,1.1583378E-1,-1.1236533E-1,5.185794E-1,5.8668154E-1,6.042269E-1,-1.078089E-1,-2.2943517E-2,-3.5651077E-2,7.4153566E-1,8.020754E-1,1.07987046E-1,-1.1365085E-1,6.372273E-1,-2.8045494E-2,-5.7537616E-3,4.7189286E-1,1E0,8.789467E-2,2.2541316E-2,5.7472444E-1,7.967305E-1,6.328668E-1,1.07035436E-1,-5.6059766E-3,-9.021618E-2,-7.9089545E-2,1.3047868E-2,1.4737539E-2,7.0318185E-2,-4.201959E-3,5.9429605E-2,9.293597E-2,-7.4895464E-2,-1.5506263E-2,-7.168927E-2,-9.042531E-2,-4.3294183E-3,-3.4997888E-2,4.863816E-2,-1.7638499E-2,-9.942404E-2,2.1836476E-2,1.0577005E-1,7.9247236E-2,-6.9441567E-3],"split_indices":[0,1,1,1,0,1,1,0,0,1,2,0,0,2,0,0,2,0,0,0,1,2,0,0,1,0,0,1,0,0,0,0,1,0,0,0,1,1,0,0,0,0,0,1,2,0,0,1,0,0,0,0,0,0,0,0,0,0,0,0,0,0,0,0,0,0,0,0,0,0,0,0,0],"split_type":[0,0,0,0,0,0,0,0,0,0,0,0,0,0,0,0,0,0,0,0,0,0,0,0,0,0,0,0,0,0,0,0,0,0,0,0,0,0,0,0,0,0,0,0,0,0,0,0,0,0,0,0,0,0,0,0,0,0,0,0,0,0,0,0,0,0,0,0,0,0,0,0,0],"sum_hessian":[1.0465254E3,5.0052332E2,5.460021E2,4.6666675E2,3.3856598E1,5.352685E1,4.9247522E2,4.1252066E2,5.414607E1,1.158693E1,2.2269667E1,2.6766779E1,2.6760075E1,3.6118446E1,4.5635678E2,4.159008E1,1.2555988E1,1.0359638E1,1.2272923E0,1.004683E1,1.22228365E1,2.4716913E1,2.0498657E0,1.6745455E1,1.0014619E1,1.4609461E1,2.1508987E1,2.4743198E1,4.316136E2,3.7195114E1,4.3949676E0,7.538113E0,5.0178747E0,9.344184E0,1.0154539E0,1.8112303E0,8.2356E0,5.906448E0,6.316389E0,1.9000557E1,5.7163568E0,1.0171989E0,1.0326668E0,7.3801255E0,9.36533E0,8.0272665E0,1.9873519E0,6.9900985E0,7.619362E0,8.036508E0,1.6706692E1,2.3695884E0,2.0253792E0,3.318631E0,4.2194824E0,1.6431012E0,3.3747737E0,1.9407903E0,6.29481E0,4.783759E0,1.1226884E0,1.0227991E0,4.6935577E0,6.017329E0,1.3627965E0,5.4676056E0,3.897724E0,5.5535717E0,1.4365268E0,3.1321938E0,4.4871683E0,2.5563767E0,5.4801316E0],"tree_param":{"num_deleted":"0","num_feature":"3","num_nodes":"73","size_leaf_vector":"1"}},{"base_weights":[-1.5080602E-4,-1.015506E0,9.426452E-1,-1.1205148E0,-6.1857807E-3,-4.246333E-1,1.0932289E0,-1.1475964E-1,-8.518324E-1,-9.8807436E-1,5.7919604E-1,-9.6052074E-1,9.0317644E-2,7.221722E-1,1.1217141E0,-1.0891711E-1,-2.5466517E-1,-1.0520612E0,-8.5057905E-3,1.5985698E-1,8.0676216E-1,-1.0178121E0,-2.133215E-1,-3.188983E-1,7.401329E-1,2.0925088E-1,1.0566193E0,7.8471345E-1,1.1378236E-1,-6.3904995E-1,6.220431E-1,-1.0919352E-1,-2.9189631E-2,-2.1444309E-1,5.8038116E-1,3.5858E-1,8.747388E-2,-1.1096914E-1,-6.047379E-1,-2.6766498E-2,-5.463826E-3,-6.0277164E-1,1.4782487E-1,8.353113E-1,2.1209417E-2,-1.999019E-1,1.02231614E-1,4.8638713E-1,1.1126118E-1,2.1826023E-1,1.0313668E-1,-2.7009306E-2,-8.174429E-2,1.0119355E-2,1.10587336E-1,-6.1152E-2,8.078576E-3,2.7521277E-2,8.086596E-2,7.3318906E-2,-3.5336055E-3,-7.221446E-2,-2.59876E-2,-8.331328E-2,-2.0701578E-3,-7.671595E-2,4.5218717E-2,4.6887714E-2,9.867787E-2,-5.7558797E-4,-6.505704E-2,1.0244709E-2,6.861197E-2,8.4909365E-2,-6.3387104E-3],"categories":[],"categories_nodes":[],"categories_segments":[],"categories_sizes":[],"default_left":[0,0,0,0,0,0,0,0,0,0,0,0,0,0,0,0,0,0,0,0,0,0,0,0,0,0,0,0,0,0,0,0,0,0,0,0,0,0,0,0,0,0,0,0,0,0,0,0,0,0,0,0,0,0,0,0,0,0,0,0,0,0,0,0,0,0,0,0,0,0,0,0,0,0,0],"id":13,"left_children":[1,3,5,7,9,11,13,-1,15,17,19,21,23,25,27,-1,29,31,-1,33,35,37,39,41,43,45,47,49,-1,51,53,-1,-1,55,57,59,-1,-1,61,-1,-1,63,65,67,-1,69,-1,71,-1,73,-1,-1,-1,-1,-1,-1,-1,-1,-1,-1,-1,-1,-1,-1,-1,-1,-1,-1,-1,-1,-1,-1,-1,-1,-1],"loss_changes":[9.293886E2,4.953665E1,1.04114044E2,2.1031494E0,2.6469257E1,1.406771E1,3.986023E0,0E0,5.7671604E0,9.042301E-1,2.6248293E0,8.493595E-1,7.349417E0,5.8101063E0,1.3851318E0,0E0,4.9248595E0,1.6539192E-1,0E0,1.9186089E0,2.4870586E-1,1.9705391E-1,1.1584684E-2,2.3563988E0,3.574648E-1,5.235458E0,1.304493E-1,2.8996992E0,0E0,4.2640924E-1,1.0477145E0,0E0,0E0,8.419728E-1,1.7018104E-1,6.347156E-1,0E0,0E0,6.9827795E-2,0E0,0E0,1.4359541E0,2.3729212E0,1.8687248E-2,0E0,9.4970655E-1,0E0,2.1018308E-1,0E0,1.4845874E0,0E0,0E0,0E0,0E0,0E0,0E0,0E0,0E0,0E0,0E0,0E0,0E0,0E0,0E0,0E0,0E0,0E0,0E0,0E0,0E0,0E0,0E0,0E0,0E0,0E0],"parents":[2147483647,0,0,1,1,2,2,3,3,4,4,5,5,6,6,8,8,9,9,10,10,11,11,12,12,13,13,14,14,16,16,17,17,19,19,20,20,21,21,22,22,23,23,24,24,25,25,26,26,27,27,29,29,30,30,33,33,34,34,35,35,38,38,41,41,42,42,43,43,45,45,47,47,49,49],"right_children":[2,4,6,8,10,12,14,-1,16,18,20,22,24,26,28,-1,30,32,-1,34,36,38,40,42,44,46,48,50,-1,52,54,-1,-1,56,58,60,-1,-1,62,-1,-1,64,66,68,-1,70,-1,72,-1,74,-1,-1,-1,-1,-1,-1,-1,-1,-1,-1,-1,-1,-1,-1,-1,-1,-1,-1,-1,-1,-1,-1,-1,-1,-1],"split_conditions":[6.217885E-1,6.6613024E-1,4.9564156E-1,5.4867524E-1,5.0457513E-1,3.4771734E-1,5.8278126E-1,-1.1475964E-1,5.018518E-1,8.869372E-1,5.725379E-1,8.262642E-1,7.7373403E-1,1E0,6.556145E-1,-1.0891711E-1,1E0,4.9222702E-1,-8.5057905E-3,1E0,6.871567E-1,1E0,8.762958E-1,1E0,4.7531214E-1,7.967305E-1,6.9197327E-1,7.14343E-1,1.1378236E-1,5.8786243E-1,6.042269E-1,-1.0919352E-1,-2.9189631E-2,7.3291636E-1,8.3222973E-1,6.7260784E-1,8.747388E-2,-1.1096914E-1,2.4664187E-1,-2.6766498E-2,-5.463826E-3,4.7189286E-1,6.556145E-1,4.0929008E-1,2.1209417E-2,5.7472444E-1,1.02231614E-1,5.365655E-1,1.1126118E-1,6.328668E-1,1.0313668E-1,-2.7009306E-2,-8.174429E-2,1.0119355E-2,1.10587336E-1,-6.1152E-2,8.078576E-3,2.7521277E-2,8.086596E-2,7.3318906E-2,-3.5336055E-3,-7.221446E-2,-2.59876E-2,-8.331328E-2,-2.0701578E-3,-7.671595E-2,4.5218717E-2,4.6887714E-2,9.867787E-2,-5.7558797E-4,-6.505704E-2,1.0244709E-2,6.861197E-2,8.4909365E-2,-6.3387104E-3],"split_indices":[0,1,1,1,0,1,1,0,0,1,0,0,0,2,0,0,2,0,0,2,1,2,0,2,1,0,0,1,0,1,1,0,0,1,1,1,0,0,1,0,0,1,0,1,0,1,0,1,0,0,0,0,0,0,0,0,0,0,0,0,0,0,0,0,0,0,0,0,0,0,0,0,0,0,0],"split_type":[0,0,0,0,0,0,0,0,0,0,0,0,0,0,0,0,0,0,0,0,0,0,0,0,0,0,0,0,0,0,0,0,0,0,0,0,0,0,0,0,0,0,0,0,0,0,0,0,0,0,0,0,0,0,0,0,0,0,0,0,0,0,0,0,0,0,0,0,0,0,0,0,0,0,0],"sum_hessian":[9.688712E2,4.6644772E2,5.0242346E2,4.2239227E2,4.405546E1,4.9663765E1,4.527597E2,3.807443E2,4.164798E1,1.6197954E1,2.7857508E1,2.3913128E1,2.5750637E1,3.4158142E1,4.1860156E2,2.9213463E1,1.2434518E1,1.4972002E1,1.2259529E0,1.0398506E1,1.7459002E1,2.1873789E1,2.039339E0,1.6112911E1,9.637728E0,1.4123478E1,2.0034664E1,2.1365139E1,3.9723642E2,8.832895E0,3.601623E0,1.3811104E1,1.1608984E0,5.760902E0,4.6376047E0,3.1257043E0,1.4333298E1,1.6514158E1,5.3596315E0,1.0075129E0,1.031826E0,9.837802E0,6.2751083E0,7.672802E0,1.9649255E0,9.897147E0,4.2263303E0,2.6574671E0,1.7377197E1,7.0528245E0,1.4312315E1,3.6982052E0,5.13469E0,2.3167562E0,1.2848669E0,1.9998292E0,3.7610726E0,2.9284198E0,1.7091848E0,1.1606543E0,1.96505E0,3.1822405E0,2.177391E0,6.739312E0,3.09849E0,1.1867907E0,5.0883174E0,3.4418209E0,4.230981E0,7.6250715E0,2.2720757E0,1.4271054E0,1.2303616E0,1.5550606E0,5.4977636E0],"tree_param":{"num_deleted":"0","num_feature":"3","num_nodes":"75","size_leaf_vector":"1"}},{"base_weights":[1.1962349E-5,-1.002714E0,9.1323155E-1,-1.1007313E0,-5.7354573E-2,-4.2543212E-1,1.0695665E0,-1.1304226E-1,-8.117649E-1,-9.6049505E-1,5.0255084E-1,-9.409573E-1,7.342294E-2,6.766099E-1,1.1009834E0,-9.5820534E-1,2.5997135E-1,-1.027382E0,-8.042312E-3,1.8368311E-1,7.533171E-1,-9.9827754E-1,-2.0332051E-2,-7.074198E-1,3.8717583E-1,1.02160096E-1,9.9160147E-1,7.627513E-1,1.1195343E-1,-1.06743E-1,-4.6635205E-1,-9.419926E-2,6.675496E-2,-1.06953755E-1,-2.7823603E-2,-2.0288265E-1,5.21478E-1,4.6212387E-1,1.0240177E-1,-1.0903417E-1,-5.910999E-1,-8.384661E-2,-4.450652E-3,5.1072055E-1,-6.962587E-2,-4.0367997E-1,7.5325507E-1,6.6485393E-1,1.0978065E-1,2.3503166E-1,1.017849E-1,-7.475013E-2,3.0965999E-2,-2.9128132E-2,2.2044815E-2,2.3763233E-3,-6.940941E-2,6.911795E-2,-1.6471379E-2,7.384459E-2,-7.376419E-2,-7.814956E-2,-3.471603E-2,1.7208235E-2,8.361056E-2,-1.6017525E-2,-8.87938E-2,2.2220394E-2,9.131134E-2,9.54407E-2,-2.7273059E-2,-1.4550978E-2,6.0591694E-2],"categories":[],"categories_nodes":[],"categories_segments":[],"categories_sizes":[],"default_left":[0,0,0,0,0,0,0,0,0,0,0,0,0,0,0,0,0,0,0,0,0,0,0,0,0,0,0,0,0,0,0,0,0,0,0,0,0,0,0,0,0,0,0,0,0,0,0,0,0,0,0,0,0,0,0,0,0,0,0,0,0,0,0,0,0,0,0,0,0,0,0,0,0],"id":14,"left_children":[1,3,5,7,9,11,13,-1,15,17,19,21,23,25,27,29,31,33,-1,35,37,39,-1,41,43,45,47,49,-1,-1,51,53,-1,-1,-1,55,57,59,-1,-1,61,-1,-1,63,-1,65,67,69,-1,71,-1,-1,-1,-1,-1,-1,-1,-1,-1,-1,-1,-1,-1,-1,-1,-1,-1,-1,-1,-1,-1,-1,-1],"loss_changes":[8.2232056E2,3.9598907E1,9.881314E1,2.4093018E0,2.1349422E1,1.2892358E1,4.45401E0,0E0,6.4763947E0,8.672066E-1,1.9509845E0,8.36895E-1,6.709486E0,6.009364E0,1.5827942E0,1.3890228E0,8.649609E-1,1.733141E-1,0E0,1.7805287E0,6.5432835E-1,2.0137787E-1,0E0,6.4752316E-1,2.9503672E0,4.6101685E0,2.301979E-2,2.9014635E0,0E0,0E0,2.011339E0,3.0291402E-1,0E0,0E0,0E0,7.625027E-1,9.4347966E-1,3.4334998E0,0E0,0E0,2.3395538E-2,0E0,0E0,1.8370671E0,0E0,8.022009E-1,3.120141E-1,2.3935182E0,0E0,1.3446871E0,0E0,0E0,0E0,0E0,0E0,0E0,0E0,0E0,0E0,0E0,0E0,0E0,0E0,0E0,0E0,0E0,0E0,0E0,0E0,0E0,0E0,0E0,0E0],"parents":[2147483647,0,0,1,1,2,2,3,3,4,4,5,5,6,6,8,8,9,9,10,10,11,11,12,12,13,13,14,14,15,15,16,16,17,17,19,19,20,20,21,21,23,23,24,24,25,25,26,26,27,27,30,30,31,31,35,35,36,36,37,37,40,40,43,43,45,45,46,46,47,47,49,49],"right_children":[2,4,6,8,10,12,14,-1,16,18,20,22,24,26,28,30,32,34,-1,36,38,40,-1,42,44,46,48,50,-1,-1,52,54,-1,-1,-1,56,58,60,-1,-1,62,-1,-1,64,-1,66,68,70,-1,72,-1,-1,-1,-1,-1,-1,-1,-1,-1,-1,-1,-1,-1,-1,-1,-1,-1,-1,-1,-1,-1,-1,-1],"split_conditions":[6.182021E-1,6.6613024E-1,4.9564156E-1,5.4867524E-1,5.0457513E-1,3.4771734E-1,5.8278126E-1,-1.1304226E-1,5.8668154E-1,8.869372E-1,1E0,8.262642E-1,6.867215E-1,7.3033226E-1,6.556145E-1,5.018518E-1,1E0,4.9222702E-1,-8.042312E-3,5.6796426E-1,8.3222973E-1,1E0,-2.0332051E-2,4.7189286E-1,4.892089E-1,1E0,7.967305E-1,7.14343E-1,1.1195343E-1,-1.06743E-1,1E0,5.911231E-1,6.675496E-2,-1.06953755E-1,-2.7823603E-2,5.579466E-1,6.088841E-1,8.020754E-1,1.0240177E-1,-1.0903417E-1,1.8687475E-1,-8.384661E-2,-4.450652E-3,7.800566E-1,-6.962587E-2,5.7472444E-1,5.365655E-1,7.8453094E-1,1.0978065E-1,1E0,1.017849E-1,-7.475013E-2,3.0965999E-2,-2.9128132E-2,2.2044815E-2,2.3763233E-3,-6.940941E-2,6.911795E-2,-1.6471379E-2,7.384459E-2,-7.376419E-2,-7.814956E-2,-3.471603E-2,1.7208235E-2,8.361056E-2,-1.6017525E-2,-8.87938E-2,2.2220394E-2,9.131134E-2,9.54407E-2,-2.7273059E-2,-1.4550978E-2,6.0591694E-2],"split_indices":[0,1,1,1,0,1,1,0,0,1,2,0,0,0,0,0,2,0,0,0,1,2,0,1,1,2,0,1,0,0,2,1,0,0,0,0,0,1,0,0,1,0,0,0,0,1,1,0,0,2,0,0,0,0,0,0,0,0,0,0,0,0,0,0,0,0,0,0,0,0,0,0,0],"split_type":[0,0,0,0,0,0,0,0,0,0,0,0,0,0,0,0,0,0,0,0,0,0,0,0,0,0,0,0,0,0,0,0,0,0,0,0,0,0,0,0,0,0,0,0,0,0,0,0,0,0,0,0,0,0,0,0,0,0,0,0,0,0,0,0,0,0,0,0,0,0,0,0,0],"sum_hessian":[8.9601514E2,4.2703146E2,4.6898364E2,3.8676624E2,4.0265236E1,4.8862545E1,4.2012112E2,3.480882E2,3.867803E1,1.5135638E1,2.5129599E1,2.3593939E1,2.5268606E1,3.2770504E1,3.8735062E2,3.412163E1,4.5563955E0,1.3910995E1,1.2246433E0,1.1825322E1,1.3304276E1,2.1564837E1,2.0291038E0,6.883301E0,1.8385305E1,1.2074527E1,2.0695976E1,2.2330042E1,3.6502057E2,2.6963657E1,7.1579742E0,2.8493207E0,1.7070749E0,1.2765014E1,1.1459812E0,5.7008147E0,6.1245074E0,7.7137337E0,5.5905423E0,1.6219706E1,5.3451304E0,5.526074E0,1.3572268E0,1.6977913E1,1.4073925E0,7.0091047E0,5.065422E0,6.8577366E0,1.3838239E1,7.9028287E0,1.4427214E1,5.281299E0,1.8766751E0,1.7976246E0,1.051696E0,4.5520935E0,1.1487213E0,4.904349E0,1.2201586E0,6.58226E0,1.1314738E0,1.7643818E0,3.5807486E0,9.068699E0,7.9092145E0,5.549402E0,1.4597024E0,1.7249901E0,3.340432E0,5.225889E0,1.6318471E0,4.200567E0,3.702262E0],"tree_param":{"num_deleted":"0","num_feature":"3","num_nodes":"73","size_leaf_vector":"1"}},{"base_weights":[-1.5578598E-4,-9.833567E-1,8.918354E-1,-1.0835717E0,-5.5653468E-2,-4.0648642E-1,1.0495511E0,-1.1153177E-1,-7.82344E-1,-9.3417805E-1,4.6994123E-1,-9.127789E-1,6.557125E-2,6.457695E-1,1.0830833E0,-9.3155956E-1,2.4654338E-1,-1.0041461E0,-7.604193E-3,1.6627717E-1,7.1684206E-1,-9.727414E-1,-1.90386E-2,-2.9578707E-1,6.684093E-1,1.483284E-1,1.0093288E0,7.310583E-1,1.10310815E-1,-1.0471805E-1,-4.3773842E-1,-8.685473E-2,6.332087E-2,-1.0487967E-1,-2.6524767E-2,-1.9216889E-1,4.8697668E-1,4.2794532E-1,9.962674E-2,-1.0700788E-1,-5.645086E-1,-6.679165E-1,1.5622196E-2,3.8942793E-1,9.376752E-2,-2.0817673E-1,9.562204E-2,4.3858302E-1,1.072188E-1,2.1949527E-1,9.9349014E-2,-7.118721E-2,2.8816024E-2,-2.7414313E-2,2.0823915E-2,-5.7598185E-2,8.3955685E-3,6.511257E-2,-1.5491337E-2,7.115239E-2,-8.3000354E-2,-7.566363E-2,-3.252941E-2,-7.957595E-2,-4.1986057E-3,-2.8857196E-2,4.196352E-2,5.1451482E-2,-2.7596653E-3,-3.762458E-2,1.7345345E-2,8.396212E-3,6.360228E-2,7.251279E-2,-7.915195E-3],"categories":[],"categories_nodes":[],"categories_segments":[],"categories_sizes":[],"default_left":[0,0,0,0,0,0,0,0,0,0,0,0,0,0,0,0,0,0,0,0,0,0,0,0,0,0,0,0,0,0,0,0,0,0,0,0,0,0,0,0,0,0,0,0,0,0,0,0,0,0,0,0,0,0,0,0,0,0,0,0,0,0,0,0,0,0,0,0,0,0,0,0,0,0,0],"id":15,"left_children":[1,3,5,7,9,11,13,-1,15,17,19,21,23,25,27,29,31,33,-1,35,37,39,-1,41,43,45,47,49,-1,-1,51,53,-1,-1,-1,55,57,59,-1,-1,61,63,65,67,-1,69,-1,71,-1,73,-1,-1,-1,-1,-1,-1,-1,-1,-1,-1,-1,-1,-1,-1,-1,-1,-1,-1,-1,-1,-1,-1,-1,-1,-1],"loss_changes":[7.2807544E2,3.6653534E1,8.955734E1,2.5351257E0,1.8703121E1,1.150071E1,4.5595703E0,0E0,5.9598713E0,8.327265E-1,1.7861805E0,8.182049E-1,5.7973933E0,5.6843233E0,1.7112122E0,1.4146996E0,7.663533E-1,1.8097687E-1,0E0,1.5533417E0,6.8078184E-1,2.3618317E-1,0E0,1.9532237E0,3.8158083E-1,4.4599233E0,1.9223213E-1,2.7606878E0,0E0,0E0,1.7855517E0,2.6945478E-1,0E0,0E0,0E0,7.5985503E-1,8.368679E-1,3.6213655E0,0E0,0E0,3.8258076E-2,5.7960176E-1,1.362886E0,3.5809302E-1,0E0,7.7629E-1,0E0,1.933443E-1,0E0,1.3872572E0,0E0,0E0,0E0,0E0,0E0,0E0,0E0,0E0,0E0,0E0,0E0,0E0,0E0,0E0,0E0,0E0,0E0,0E0,0E0,0E0,0E0,0E0,0E0,0E0,0E0],"parents":[2147483647,0,0,1,1,2,2,3,3,4,4,5,5,6,6,8,8,9,9,10,10,11,11,12,12,13,13,14,14,15,15,16,16,17,17,19,19,20,20,21,21,23,23,24,24,25,25,26,26,27,27,30,30,31,31,35,35,36,36,37,37,40,40,41,41,42,42,43,43,45,45,47,47,49,49],"right_children":[2,4,6,8,10,12,14,-1,16,18,20,22,24,26,28,30,32,34,-1,36,38,40,-1,42,44,46,48,50,-1,-1,52,54,-1,-1,-1,56,58,60,-1,-1,62,64,66,68,-1,70,-1,72,-1,74,-1,-1,-1,-1,-1,-1,-1,-1,-1,-1,-1,-1,-1,-1,-1,-1,-1,-1,-1,-1,-1,-1,-1,-1,-1],"split_conditions":[6.182021E-1,6.6613024E-1,4.9564156E-1,5.4867524E-1,5.0457513E-1,3.4771734E-1,5.8278126E-1,-1.1153177E-1,5.8668154E-1,8.869372E-1,1E0,8.262642E-1,7.7373403E-1,1E0,6.556145E-1,5.018518E-1,1E0,4.9222702E-1,-7.604193E-3,5.6796426E-1,8.3222973E-1,1E0,-1.90386E-2,6.867215E-1,8.262642E-1,7.967305E-1,6.9197327E-1,7.14343E-1,1.10310815E-1,-1.0471805E-1,1E0,5.911231E-1,6.332087E-2,-1.0487967E-1,-2.6524767E-2,7.3291636E-1,6.088841E-1,8.0611974E-1,9.962674E-2,-1.0700788E-1,1.8687475E-1,4.7189286E-1,1E0,8.1255585E-1,9.376752E-2,7.3033226E-1,9.562204E-2,5.365655E-1,1.072188E-1,6.328668E-1,9.9349014E-2,-7.118721E-2,2.8816024E-2,-2.7414313E-2,2.0823915E-2,-5.7598185E-2,8.3955685E-3,6.511257E-2,-1.5491337E-2,7.115239E-2,-8.3000354E-2,-7.566363E-2,-3.252941E-2,-7.957595E-2,-4.1986057E-3,-2.8857196E-2,4.196352E-2,5.1451482E-2,-2.7596653E-3,-3.762458E-2,1.7345345E-2,8.396212E-3,6.360228E-2,7.251279E-2,-7.915195E-3],"split_indices":[0,1,1,1,0,1,1,0,0,1,2,0,0,2,0,0,2,0,0,0,1,2,0,0,0,0,0,1,0,0,2,1,0,0,0,1,0,1,0,0,1,1,2,0,0,0,0,1,0,0,0,0,0,0,0,0,0,0,0,0,0,0,0,0,0,0,0,0,0,0,0,0,0,0,0],"split_type":[0,0,0,0,0,0,0,0,0,0,0,0,0,0,0,0,0,0,0,0,0,0,0,0,0,0,0,0,0,0,0,0,0,0,0,0,0,0,0,0,0,0,0,0,0,0,0,0,0,0,0,0,0,0,0,0,0,0,0,0,0,0,0,0,0,0,0,0,0,0,0,0,0,0,0],"sum_hessian":[8.281825E2,3.9390103E2,4.3428146E2,3.5534674E2,3.8554295E1,4.6869843E1,3.8741162E2,3.1902274E2,3.6323982E1,1.4140785E1,2.4413511E1,2.2164402E1,2.470544E1,3.125909E1,3.5615253E2,3.1805891E1,4.5180902E0,1.29174185E1,1.2233669E0,1.1698701E1,1.271481E1,2.014565E1,2.0187514E0,1.576487E1,8.94057E0,1.3793749E1,1.7465342E1,2.1188036E1,3.3496448E2,2.4863821E1,6.9420705E0,2.8425262E0,1.675564E0,1.1785811E1,1.1316068E0,5.7135E0,5.9852004E0,7.496121E0,5.218689E0,1.4957899E1,5.1877513E0,6.6606603E0,9.104209E0,5.592522E0,3.3480482E0,1.0085541E1,3.7082083E0,2.5241253E0,1.4941216E1,7.8066964E0,1.338134E1,5.0531025E0,1.8889676E0,1.7823266E0,1.0601995E0,1.9362143E0,3.7772858E0,4.754863E0,1.2303377E0,6.4716086E0,1.0245124E0,1.6774704E0,3.510281E0,5.3056803E0,1.35498E0,5.3567095E0,3.7474997E0,4.1222687E0,1.4702535E0,7.011709E0,3.0738313E0,1.4124619E0,1.1116635E0,2.3685384E0,5.438158E0],"tree_param":{"num_deleted":"0","num_feature":"3","num_nodes":"75","size_leaf_vector":"1"}},{"base_weights":[-3.9600844E-5,-9.5730734E-1,8.7961876E-1,-1.0688192E0,-4.073464E-3,-3.6644918E-1,1.0337532E0,-1.10200524E-1,-7.643876E-1,-9.088499E-1,4.858934E-1,-8.744077E-1,7.4565336E-2,6.3403547E-1,1.0680351E0,-1.02811985E-1,-2.0636408E-1,-9.820533E-1,-7.190004E-3,1.1888017E-1,6.997576E-1,-1.0009495E0,-4.0769362E-1,-2.6374987E-1,6.36632E-1,1.6526033E-1,9.867701E-1,6.904725E-1,1.0882445E-1,-5.4581064E-1,5.209709E-1,-1.0294002E-1,-2.5289342E-2,-1.8208528E-1,4.800831E-1,3.8778076E-1,8.581974E-2,-1.0663088E-1,-3.205295E-3,-5.970219E-1,2.5694845E-2,-5.273013E-1,1.5669264E-1,3.6401385E-1,9.0966396E-2,-1.6502745E-1,9.280651E-2,4.2155415E-1,1.0529014E-1,1.8384765E-1,9.566234E-2,-1.806432E-2,-7.380795E-2,2.7880576E-3,1.018756E-1,3.3593853E-3,-6.504803E-2,6.551721E-2,1.0202929E-2,4.9298543E-2,-1.1212111E-2,-8.02545E-2,-1.8512545E-2,-7.55194E-2,-7.756834E-5,-6.831068E-2,4.2058162E-2,1.8441897E-3,5.2053194E-2,8.409122E-4,-5.680805E-2,7.917939E-3,6.1670538E-2,5.054305E-2,-3.0532435E-2],"categories":[],"categories_nodes":[],"categories_segments":[],"categories_sizes":[],"default_left":[0,0,0,0,0,0,0,0,0,0,0,0,0,0,0,0,0,0,0,0,0,0,0,0,0,0,0,0,0,0,0,0,0,0,0,0,0,0,0,0,0,0,0,0,0,0,0,0,0,0,0,0,0,0,0,0,0,0,0,0,0,0,0,0,0,0,0,0,0,0,0,0,0,0,0],"id":16,"left_children":[1,3,5,7,9,11,13,-1,15,17,19,21,23,25,27,-1,29,31,-1,33,35,37,39,41,43,45,47,49,-1,51,53,-1,-1,55,57,59,-1,-1,-1,61,-1,63,65,67,-1,69,-1,71,-1,73,-1,-1,-1,-1,-1,-1,-1,-1,-1,-1,-1,-1,-1,-1,-1,-1,-1,-1,-1,-1,-1,-1,-1,-1,-1],"loss_changes":[6.457866E2,3.9033356E1,7.7137024E1,2.4793396E0,1.7937498E1,1.008597E1,4.2000732E0,0E0,5.0243797E0,8.001709E-1,1.9774909E0,8.242912E-1,4.8961883E0,4.892659E0,1.738678E0,0E0,3.4126356E0,1.8815422E-1,0E0,1.2691541E0,4.7701645E-1,9.618664E-1,9.2579865E-1,1.8809664E0,3.8610888E-1,3.7633832E0,2.0077324E-1,2.4286995E0,0E0,5.074997E-1,1.0867921E0,0E0,0E0,6.941365E-1,2.7840495E-1,4.414196E-1,0E0,0E0,0E0,2.81317E-1,0E0,1.2239306E0,1.8439784E0,3.413663E-1,0E0,7.631449E-1,0E0,1.8329483E-1,0E0,1.3955827E0,0E0,0E0,0E0,0E0,0E0,0E0,0E0,0E0,0E0,0E0,0E0,0E0,0E0,0E0,0E0,0E0,0E0,0E0,0E0,0E0,0E0,0E0,0E0,0E0,0E0],"parents":[2147483647,0,0,1,1,2,2,3,3,4,4,5,5,6,6,8,8,9,9,10,10,11,11,12,12,13,13,14,14,16,16,17,17,19,19,20,20,21,21,22,22,23,23,24,24,25,25,26,26,27,27,29,29,30,30,33,33,34,34,35,35,39,39,41,41,42,42,43,43,45,45,47,47,49,49],"right_children":[2,4,6,8,10,12,14,-1,16,18,20,22,24,26,28,-1,30,32,-1,34,36,38,40,42,44,46,48,50,-1,52,54,-1,-1,56,58,60,-1,-1,-1,62,-1,64,66,68,-1,70,-1,72,-1,74,-1,-1,-1,-1,-1,-1,-1,-1,-1,-1,-1,-1,-1,-1,-1,-1,-1,-1,-1,-1,-1,-1,-1,-1,-1],"split_conditions":[6.217885E-1,6.6613024E-1,4.9564156E-1,5.4867524E-1,5.0457513E-1,3.4771734E-1,5.8278126E-1,-1.10200524E-1,5.018518E-1,8.869372E-1,5.725379E-1,1E0,7.7373403E-1,1E0,6.556145E-1,-1.02811985E-1,1E0,4.9222702E-1,-7.190004E-3,1E0,7.4153566E-1,8.762958E-1,2.951131E-1,1E0,8.262642E-1,7.967305E-1,6.9197327E-1,7.14343E-1,1.0882445E-1,5.8786243E-1,6.042269E-1,-1.0294002E-1,-2.5289342E-2,5.579466E-1,8.106297E-1,7.220087E-1,8.581974E-2,-1.0663088E-1,-3.205295E-3,7.032248E-1,2.5694845E-2,4.7189286E-1,6.556145E-1,4.0929008E-1,9.0966396E-2,5.7472444E-1,9.280651E-2,5.365655E-1,1.0529014E-1,6.871567E-1,9.566234E-2,-1.806432E-2,-7.380795E-2,2.7880576E-3,1.018756E-1,3.3593853E-3,-6.504803E-2,6.551721E-2,1.0202929E-2,4.9298543E-2,-1.1212111E-2,-8.02545E-2,-1.8512545E-2,-7.55194E-2,-7.756834E-5,-6.831068E-2,4.2058162E-2,1.8441897E-3,5.2053194E-2,8.409122E-4,-5.680805E-2,7.917939E-3,6.1670538E-2,5.054305E-2,-3.0532435E-2],"split_indices":[0,1,1,1,0,1,1,0,0,1,0,2,0,2,0,0,2,0,0,2,1,0,1,2,0,0,0,1,0,1,1,0,0,0,1,1,0,0,0,0,0,1,0,1,0,1,0,1,0,1,0,0,0,0,0,0,0,0,0,0,0,0,0,0,0,0,0,0,0,0,0,0,0,0,0],"split_type":[0,0,0,0,0,0,0,0,0,0,0,0,0,0,0,0,0,0,0,0,0,0,0,0,0,0,0,0,0,0,0,0,0,0,0,0,0,0,0,0,0,0,0,0,0,0,0,0,0,0,0,0,0,0,0,0,0,0,0,0,0,0,0,0,0,0,0,0,0,0,0,0,0,0,0],"sum_hessian":[7.649051E2,3.662518E2,3.9865326E2,3.2778534E2,3.8466454E1,4.3732162E1,3.549211E2,2.9320343E2,3.45819E1,1.3212757E1,2.5253696E1,1.9866873E1,2.3865292E1,2.9575361E1,3.2534573E2,2.291121E1,1.1670692E1,1.1990632E1,1.2221259E0,9.870594E0,1.5383102E1,1.4728744E1,5.138129E0,1.5229319E1,8.635974E0,1.332942E1,1.6245941E1,1.8316216E1,3.0702954E2,8.1272745E0,3.5434172E0,1.0872857E1,1.117775E0,5.654763E0,4.2158313E0,6.342286E0,9.040816E0,1.3703783E1,1.0249602E0,4.078171E0,1.0599581E0,9.205043E0,6.0242753E0,5.4887595E0,3.147214E0,9.848683E0,3.4807367E0,2.4741557E0,1.3771786E1,6.890584E0,1.14256315E1,3.4722059E0,4.6550694E0,2.3106096E0,1.2328078E0,4.5074997E0,1.1472633E0,2.3803854E0,1.8354459E0,5.2510376E0,1.0912485E0,2.0879407E0,1.9902302E0,6.121303E0,3.0837398E0,1.0605547E0,4.963721E0,2.0594916E0,3.429268E0,7.5702763E0,2.2784073E0,1.408611E0,1.0655446E0,4.1374063E0,2.7531776E0],"tree_param":{"num_deleted":"0","num_feature":"3","num_nodes":"75","size_leaf_vector":"1"}},{"base_weights":[4.7709265E-5,-9.398665E-1,8.6057657E-1,-1.0541942E0,-4.1453703E-3,-3.4862867E-1,1.0161582E0,-1.0899877E-1,-7.35564E-1,-8.8429E-1,4.5666376E-1,-8.4740376E-1,7.0788816E-2,6.0626006E-1,1.0527784E0,-1.0099905E-1,-1.8867867E-1,-9.6085536E-1,-6.798442E-3,1.0935837E-1,6.660772E-1,-9.785009E-1,-3.8730133E-1,-5.995415E-1,3.259809E-1,1.5416215E-1,9.652202E-1,6.601079E-1,1.07468866E-1,-5.1396066E-1,4.9478716E-1,-1.0110866E-1,-2.4113845E-2,-1.7280337E-1,4.5500034E-1,3.60981E-1,8.275699E-2,-1.0475373E-1,-3.0438628E-3,-5.728566E-1,2.4214918E-2,-7.2394675E-1,-4.3862415E-3,4.511772E-1,-6.924809E-2,-1.5337738E-1,9.01491E-2,4.05379E-1,1.03487216E-1,1.6985264E-1,9.338045E-2,-1.6777191E-2,-7.010935E-2,2.5933178E-3,9.735825E-2,-5.4362126E-2,8.58577E-3,1.6266713E-2,7.122706E-2,4.6186194E-2,-1.0610266E-2,-7.7837795E-2,-1.7407699E-2,-8.6463235E-2,-3.471556E-2,1.6411005E-2,7.448325E-2,7.666727E-4,-5.2546304E-2,7.4668042E-3,5.982792E-2,7.807772E-2,-8.737039E-3],"categories":[],"categories_nodes":[],"categories_segments":[],"categories_sizes":[],"default_left":[0,0,0,0,0,0,0,0,0,0,0,0,0,0,0,0,0,0,0,0,0,0,0,0,0,0,0,0,0,0,0,0,0,0,0,0,0,0,0,0,0,0,0,0,0,0,0,0,0,0,0,0,0,0,0,0,0,0,0,0,0,0,0,0,0,0,0,0,0,0,0,0,0],"id":17,"left_children":[1,3,5,7,9,11,13,-1,15,17,19,21,23,25,27,-1,29,31,-1,33,35,37,39,41,43,45,47,49,-1,51,53,-1,-1,55,57,59,-1,-1,-1,61,-1,63,-1,65,-1,67,-1,69,-1,71,-1,-1,-1,-1,-1,-1,-1,-1,-1,-1,-1,-1,-1,-1,-1,-1,-1,-1,-1,-1,-1,-1,-1],"loss_changes":[5.727986E2,3.6205963E1,6.9907196E1,2.638214E0,1.5757917E1,9.032361E0,4.2824707E0,0E0,4.842596E0,7.690563E-1,1.7823176E0,8.0740166E-1,4.3388166E0,4.5968733E0,1.8679504E0,0E0,3.018921E0,1.946783E-1,0E0,1.1310565E0,4.7561026E-1,9.27104E-1,8.414412E-1,4.542749E-1,2.6318786E0,3.3863697E0,2.086916E-1,2.3136206E0,0E0,4.5998E-1,9.892955E-1,0E0,0E0,6.860429E-1,2.6960135E-1,3.8889086E-1,0E0,0E0,0E0,2.696916E-1,0E0,9.357929E-4,0E0,1.2943914E0,0E0,6.551924E-1,0E0,1.7392176E-1,0E0,1.2975838E0,0E0,0E0,0E0,0E0,0E0,0E0,0E0,0E0,0E0,0E0,0E0,0E0,0E0,0E0,0E0,0E0,0E0,0E0,0E0,0E0,0E0,0E0,0E0],"parents":[2147483647,0,0,1,1,2,2,3,3,4,4,5,5,6,6,8,8,9,9,10,10,11,11,12,12,13,13,14,14,16,16,17,17,19,19,20,20,21,21,22,22,23,23,24,24,25,25,26,26,27,27,29,29,30,30,33,33,34,34,35,35,39,39,41,41,43,43,45,45,47,47,49,49],"right_children":[2,4,6,8,10,12,14,-1,16,18,20,22,24,26,28,-1,30,32,-1,34,36,38,40,42,44,46,48,50,-1,52,54,-1,-1,56,58,60,-1,-1,-1,62,-1,64,-1,66,-1,68,-1,70,-1,72,-1,-1,-1,-1,-1,-1,-1,-1,-1,-1,-1,-1,-1,-1,-1,-1,-1,-1,-1,-1,-1,-1,-1],"split_conditions":[6.217885E-1,6.6613024E-1,4.9564156E-1,5.4867524E-1,5.0457513E-1,3.4771734E-1,5.8278126E-1,-1.0899877E-1,5.018518E-1,8.869372E-1,5.725379E-1,1E0,6.867215E-1,1E0,6.556145E-1,-1.0099905E-1,1E0,4.9222702E-1,-6.798442E-3,1E0,7.4153566E-1,8.762958E-1,2.951131E-1,4.7189286E-1,4.892089E-1,7.967305E-1,6.9197327E-1,7.14343E-1,1.07468866E-1,5.8786243E-1,6.042269E-1,-1.0110866E-1,-2.4113845E-2,7.3291636E-1,8.3222973E-1,7.220087E-1,8.275699E-2,-1.0475373E-1,-3.0438628E-3,7.032248E-1,2.4214918E-2,6.556145E-1,-4.3862415E-3,7.800566E-1,-6.924809E-2,5.7472444E-1,9.01491E-2,5.365655E-1,1.03487216E-1,6.328668E-1,9.338045E-2,-1.6777191E-2,-7.010935E-2,2.5933178E-3,9.735825E-2,-5.4362126E-2,8.58577E-3,1.6266713E-2,7.122706E-2,4.6186194E-2,-1.0610266E-2,-7.7837795E-2,-1.7407699E-2,-8.6463235E-2,-3.471556E-2,1.6411005E-2,7.448325E-2,7.666727E-4,-5.2546304E-2,7.4668042E-3,5.982792E-2,7.807772E-2,-8.737039E-3],"split_indices":[0,1,1,1,0,1,1,0,0,1,0,2,0,2,0,0,2,0,0,2,1,0,1,1,1,0,0,1,0,1,1,0,0,1,1,1,0,0,0,0,0,0,0,0,0,1,0,1,0,0,0,0,0,0,0,0,0,0,0,0,0,0,0,0,0,0,0,0,0,0,0,0,0],"split_type":[0,0,0,0,0,0,0,0,0,0,0,0,0,0,0,0,0,0,0,0,0,0,0,0,0,0,0,0,0,0,0,0,0,0,0,0,0,0,0,0,0,0,0,0,0,0,0,0,0,0,0,0,0,0,0,0,0,0,0,0,0,0,0,0,0,0,0,0,0,0,0,0,0],"sum_hessian":[7.061876E2,3.374811E2,3.687065E2,3.0062384E2,3.685725E1,4.1890007E1,3.2681653E2,2.6808728E2,3.2536564E1,1.2349923E1,2.4507326E1,1.8668648E1,2.322136E1,2.8242811E1,2.985737E2,2.11012E1,1.1435365E1,1.1129001E1,1.2209222E0,9.7911825E0,1.4716144E1,1.36520605E1,5.0165873E0,6.0307107E0,1.7190647E1,1.3132433E1,1.5110379E1,1.7424562E1,2.8114914E2,7.915939E0,3.5194259E0,1.002452E1,1.1044816E0,5.665915E0,4.125268E0,6.213227E0,8.502916E0,1.2627612E1,1.0244483E0,3.943883E0,1.0727043E0,4.6801133E0,1.350597E0,1.5804813E1,1.3858349E0,9.86682E0,3.2656121E0,2.4265523E0,1.2683826E1,6.8231955E0,1.0601368E1,3.4430196E0,4.472919E0,2.310784E0,1.2086416E0,1.8755058E0,3.790409E0,2.6951177E0,1.4301503E0,5.1188374E0,1.0943897E0,1.9744165E0,1.9694666E0,2.4650078E0,2.2151055E0,8.780326E0,7.0244875E0,7.5698667E0,2.296954E0,1.404956E0,1.0215964E0,1.4185709E0,5.4046245E0],"tree_param":{"num_deleted":"0","num_feature":"3","num_nodes":"73","size_leaf_vector":"1"}},{"base_weights":[3.5580553E-5,-9.314931E-1,8.339793E-1,-1.0395449E0,-5.1759582E-2,-3.5203284E-1,9.96474E-1,-1.0790827E-1,-6.958126E-1,-8.603218E-1,3.8606626E-1,-8.472694E-1,4.056194E-2,5.8739257E-1,1.0394497E0,-9.92573E-2,-1.21368214E-1,-9.403462E-1,-6.4282576E-3,1.1490752E-1,6.220305E-1,-9.923059E-1,-3.5788888E-1,-2.7230665E-1,5.8978647E-1,2.922758E-1,1.0245645E-1,6.2965304E-1,1.0657227E-1,-4.28186E-1,4.7041994E-1,-9.936356E-2,-2.2995045E-2,-2.2933166E-1,3.4870583E-1,3.2763702E-1,9.3564376E-2,-1.0275952E-1,-3.129987E-2,-5.497942E-1,2.7210826E-2,-7.6468897E-1,-5.8350693E-2,3.0358127E-1,8.867454E-2,-4.4373345E-2,7.236525E-1,-5.64775E-2,7.7138627E-1,-6.285996E-2,-1.9129919E-3,-1.6383639E-2,7.503928E-2,3.613756E-2,-4.6281673E-2,-2.9483492E-2,5.532224E-2,6.2435802E-2,-8.441827E-2,-7.553016E-2,-1.6366499E-2,-1.5835784E-2,-8.868414E-2,9.028686E-3,-7.789072E-2,4.9651615E-2,-7.81677E-4,-1.668919E-2,6.266901E-2,7.8969404E-2,1.887978E-2,3.8128708E-2,9.2692055E-2],"categories":[],"categories_nodes":[],"categories_segments":[],"categories_sizes":[],"default_left":[0,0,0,0,0,0,0,0,0,0,0,0,0,0,0,0,0,0,0,0,0,0,0,0,0,0,0,0,0,0,0,0,0,0,0,0,0,0,0,0,0,0,0,0,0,0,0,0,0,0,0,0,0,0,0,0,0,0,0,0,0,0,0,0,0,0,0,0,0,0,0,0,0],"id":18,"left_children":[1,3,5,7,9,11,13,-1,15,17,19,21,23,25,27,-1,29,31,-1,33,35,37,39,41,43,45,-1,47,-1,49,51,-1,-1,53,55,57,-1,-1,-1,59,-1,61,63,65,-1,67,69,-1,71,-1,-1,-1,-1,-1,-1,-1,-1,-1,-1,-1,-1,-1,-1,-1,-1,-1,-1,-1,-1,-1,-1,-1,-1],"loss_changes":[5.08053E2,2.9311554E1,6.685358E1,2.9875793E0,1.2667603E1,8.262564E0,4.7295837E0,0E0,5.1969585E0,7.3901653E-1,1.4190297E0,9.763756E-1,4.380995E0,3.722805E0,2.274475E0,0E0,2.3375058E0,2.0043373E-1,0E0,1.0510532E0,8.22525E-1,1.1738777E-2,8.572054E-1,1.6758556E0,5.152161E-1,2.9381843E0,0E0,3.6397815E0,0E0,6.660433E-1,9.2084E-1,0E0,0E0,9.235407E-1,1.1610496E0,3.2554324E0,0E0,0E0,0E0,2.5864792E-1,0E0,2.1983457E-1,1.405567E0,3.775975E-1,0E0,1.1061566E0,1.6278076E-1,0E0,6.987715E-1,0E0,0E0,0E0,0E0,0E0,0E0,0E0,0E0,0E0,0E0,0E0,0E0,0E0,0E0,0E0,0E0,0E0,0E0,0E0,0E0,0E0,0E0,0E0,0E0],"parents":[2147483647,0,0,1,1,2,2,3,3,4,4,5,5,6,6,8,8,9,9,10,10,11,11,12,12,13,13,14,14,16,16,17,17,19,19,20,20,21,21,22,22,23,23,24,24,25,25,27,27,29,29,30,30,33,33,34,34,35,35,39,39,41,41,42,42,43,43,45,45,46,46,48,48],"right_children":[2,4,6,8,10,12,14,-1,16,18,20,22,24,26,28,-1,30,32,-1,34,36,38,40,42,44,46,-1,48,-1,50,52,-1,-1,54,56,58,-1,-1,-1,60,-1,62,64,66,-1,68,70,-1,72,-1,-1,-1,-1,-1,-1,-1,-1,-1,-1,-1,-1,-1,-1,-1,-1,-1,-1,-1,-1,-1,-1,-1,-1],"split_conditions":[6.182021E-1,6.6613024E-1,4.9564156E-1,5.4867524E-1,5.0457513E-1,3.3585662E-1,5.911231E-1,-1.0790827E-1,5.018518E-1,8.869372E-1,1E0,1E0,7.7373403E-1,7.967305E-1,6.556145E-1,-9.92573E-2,1E0,4.9222702E-1,-6.4282576E-3,7.4153566E-1,8.3222973E-1,8.504365E-1,2.951131E-1,4.1304368E-1,8.262642E-1,1E0,1.0245645E-1,6.3242036E-1,1.0657227E-1,5.8668154E-1,5.7472444E-1,-9.936356E-2,-2.2995045E-2,6.811619E-1,5.3036565E-1,8.0611974E-1,9.3564376E-2,-1.0275952E-1,-3.129987E-2,7.032248E-1,2.7210826E-2,3.5954967E-1,4.892089E-1,8.0134207E-1,8.867454E-2,5.8278126E-1,5.790281E-1,-5.64775E-2,7.14343E-1,-6.285996E-2,-1.9129919E-3,-1.6383639E-2,7.503928E-2,3.613756E-2,-4.6281673E-2,-2.9483492E-2,5.532224E-2,6.2435802E-2,-8.441827E-2,-7.553016E-2,-1.6366499E-2,-1.5835784E-2,-8.868414E-2,9.028686E-3,-7.789072E-2,4.9651615E-2,-7.81677E-4,-1.668919E-2,6.266901E-2,7.8969404E-2,1.887978E-2,3.8128708E-2,9.2692055E-2],"split_indices":[0,1,1,1,0,1,1,0,0,1,2,2,0,0,0,0,2,0,0,1,1,0,1,1,0,2,0,1,0,0,1,0,0,1,0,1,0,0,0,0,0,1,1,0,0,1,1,0,1,0,0,0,0,0,0,0,0,0,0,0,0,0,0,0,0,0,0,0,0,0,0,0,0],"split_type":[0,0,0,0,0,0,0,0,0,0,0,0,0,0,0,0,0,0,0,0,0,0,0,0,0,0,0,0,0,0,0,0,0,0,0,0,0,0,0,0,0,0,0,0,0,0,0,0,0,0,0,0,0,0,0,0,0,0,0,0,0,0,0,0,0,0,0,0,0,0,0,0,0],"sum_hessian":[6.5199744E2,3.0792416E2,3.4407327E2,2.7407916E2,3.384501E1,4.132018E1,3.0275308E2,2.4388686E2,3.0192312E1,1.15499525E1,2.2295055E1,1.7759468E1,2.356071E1,3.0176264E1,2.725768E2,1.9427896E1,1.0764418E1,1.0330195E1,1.2197571E0,1.1065772E1,1.1229282E1,1.29066725E1,4.852795E0,1.5331335E1,8.229376E0,1.9011168E1,1.1165097E1,1.7926804E1,2.5465001E2,7.2711034E0,3.4933138E0,9.238477E0,1.0917193E0,4.48349E0,6.582282E0,6.846802E0,4.38248E0,1.1781905E1,1.1247665E0,3.8173022E0,1.0354931E0,3.8642917E0,1.1467043E1,5.2203603E0,3.0090158E0,1.1181887E1,7.82928E0,1.5849746E0,1.6341827E1,4.519906E0,2.7511976E0,1.196822E0,2.2964916E0,1.1149552E0,3.368535E0,1.4808761E0,5.101406E0,5.8361883E0,1.0106143E0,1.867362E0,1.9499401E0,1.0330266E0,2.8312652E0,1.0231227E1,1.2358159E0,2.8562324E0,2.3641279E0,1.0090863E1,1.0910242E0,6.5447044E0,1.2845757E0,5.642132E0,1.0699697E1],"tree_param":{"num_deleted":"0","num_feature":"3","num_nodes":"73","size_leaf_vector":"1"}},{"base_weights":[-1.09800065E-4,-9.1572934E-1,8.1500167E-1,-1.0407608E0,-1.3807303E-1,-3.3545044E-1,9.799888E-1,-1.0693496E-1,-7.077253E-1,-8.482757E-1,3.4101486E-1,-6.845892E-1,1.7794989E-1,5.6163245E-1,1.0259404E0,-9.3990403E-1,1.8512787E-2,-1.0130111E-1,-2.922497E-1,1.9344999E-2,6.5871036E-1,-8.4160835E-1,1.5295732E-1,3.2356122E-1,-7.109555E-2,2.7657554E-1,1.0072012E-1,5.999268E-1,1.0544789E-1,-1.01394355E-1,-3.7913015E-1,-2.020204E-1,3.0348474E-1,2.7370557E-2,-4.9921572E-1,-3.0671766E-1,3.253922E-1,4.274086E-1,9.125448E-2,-9.979665E-2,-4.3507215E-1,-2.4579246E-2,4.8837643E-2,-5.501765E-1,5.014163E-1,-3.614092E-2,6.927087E-1,-5.2395213E-2,7.420136E-1,3.1375308E-2,-7.860371E-2,2.276099E-2,-4.086766E-2,4.8747323E-2,-4.3479386E-3,-7.6359026E-2,1.2587152E-2,-6.543595E-2,4.6614404E-3,-2.7772939E-2,5.2241225E-2,7.072096E-2,-7.823715E-2,-6.5778136E-2,-1.2363349E-2,-6.67499E-2,-1.519205E-2,2.635323E-2,9.0674795E-2,-1.5155566E-2,6.0823787E-2,7.5790666E-2,1.79776E-2,3.550936E-2,9.0548985E-2],"categories":[],"categories_nodes":[],"categories_segments":[],"categories_sizes":[],"default_left":[0,0,0,0,0,0,0,0,0,0,0,0,0,0,0,0,0,0,0,0,0,0,0,0,0,0,0,0,0,0,0,0,0,0,0,0,0,0,0,0,0,0,0,0,0,0,0,0,0,0,0,0,0,0,0,0,0,0,0,0,0,0,0,0,0,0,0,0,0,0,0,0,0,0,0],"id":19,"left_children":[1,3,5,7,9,11,13,-1,15,17,19,21,23,25,27,29,31,-1,33,35,37,39,41,43,-1,45,-1,47,-1,-1,49,51,53,-1,55,57,59,61,-1,-1,63,-1,-1,65,67,69,71,-1,73,-1,-1,-1,-1,-1,-1,-1,-1,-1,-1,-1,-1,-1,-1,-1,-1,-1,-1,-1,-1,-1,-1,-1,-1,-1,-1],"loss_changes":[4.507909E2,2.751535E1,6.098105E1,1.5750122E0,1.4087886E1,7.439294E0,4.801178E0,0E0,3.7807627E0,1.2266111E0,2.535025E0,3.3514128E0,2.471601E0,3.5182009E0,2.41687E0,3.1856823E-1,4.6273828E-1,0E0,7.4630535E-1,1.4388164E0,3.446207E-1,8.8733864E-1,7.506619E-1,2.695078E0,0E0,2.5767338E0,0E0,3.2739677E0,0E0,0E0,1.2537026E0,4.660288E-1,2.2459859E-1,0E0,7.844583E-1,8.9173967E-1,1.0252154E0,3.406138E0,0E0,0E0,4.4219983E-1,0E0,0E0,4.389578E-2,1.0586874E0,9.954779E-1,1.4675903E-1,0E0,7.1919537E-1,0E0,0E0,0E0,0E0,0E0,0E0,0E0,0E0,0E0,0E0,0E0,0E0,0E0,0E0,0E0,0E0,0E0,0E0,0E0,0E0,0E0,0E0,0E0,0E0,0E0,0E0],"parents":[2147483647,0,0,1,1,2,2,3,3,4,4,5,5,6,6,8,8,9,9,10,10,11,11,12,12,13,13,14,14,15,15,16,16,18,18,19,19,20,20,21,21,22,22,23,23,25,25,27,27,30,30,31,31,32,32,34,34,35,35,36,36,37,37,40,40,43,43,44,44,45,45,46,46,48,48],"right_children":[2,4,6,8,10,12,14,-1,16,18,20,22,24,26,28,30,32,-1,34,36,38,40,42,44,-1,46,-1,48,-1,-1,50,52,54,-1,56,58,60,62,-1,-1,64,-1,-1,66,68,70,72,-1,74,-1,-1,-1,-1,-1,-1,-1,-1,-1,-1,-1,-1,-1,-1,-1,-1,-1,-1,-1,-1,-1,-1,-1,-1,-1,-1],"split_conditions":[6.182021E-1,6.2594944E-1,4.9564156E-1,5.4867524E-1,5.018518E-1,4.1304368E-1,5.911231E-1,-1.0693496E-1,5.5343884E-1,4.225486E-1,1E0,8.1110674E-1,4.892089E-1,7.967305E-1,6.556145E-1,5.1261127E-1,5.9326464E-1,-1.0130111E-1,4.5023334E-1,7.4153566E-1,8.3222973E-1,1E0,3.3333534E-1,6.556145E-1,-7.109555E-2,1E0,1.0072012E-1,6.3242036E-1,1.0544789E-1,-1.01394355E-1,5.2705956E-1,5.6796426E-1,6.031496E-1,2.7370557E-2,7.372986E-1,5.6796426E-1,5.3036565E-1,8.0611974E-1,9.125448E-2,-9.979665E-2,7.032248E-1,-2.4579246E-2,4.8837643E-2,4.638407E-1,7.800566E-1,5.8278126E-1,5.790281E-1,-5.2395213E-2,7.14343E-1,3.1375308E-2,-7.860371E-2,2.276099E-2,-4.086766E-2,4.8747323E-2,-4.3479386E-3,-7.6359026E-2,1.2587152E-2,-6.543595E-2,4.6614404E-3,-2.7772939E-2,5.2241225E-2,7.072096E-2,-7.823715E-2,-6.5778136E-2,-1.2363349E-2,-6.67499E-2,-1.519205E-2,2.635323E-2,9.0674795E-2,-1.5155566E-2,6.0823787E-2,7.5790666E-2,1.79776E-2,3.550936E-2,9.0548985E-2],"split_indices":[0,1,1,1,0,1,1,0,0,0,2,0,1,0,0,0,0,0,0,1,1,2,1,0,0,2,0,1,0,0,0,0,0,0,1,0,0,1,0,0,0,0,0,1,0,1,1,0,1,0,0,0,0,0,0,0,0,0,0,0,0,0,0,0,0,0,0,0,0,0,0,0,0,0,0],"split_type":[0,0,0,0,0,0,0,0,0,0,0,0,0,0,0,0,0,0,0,0,0,0,0,0,0,0,0,0,0,0,0,0,0,0,0,0,0,0,0,0,0,0,0,0,0,0,0,0,0,0,0,0,0,0,0,0,0,0,0,0,0,0,0,0,0,0,0,0,0,0,0,0,0,0,0],"sum_hessian":[6.0200854E2,2.8346603E2,3.185425E2,2.4391165E2,3.9554394E1,3.9823177E1,2.7871936E2,2.2259265E2,2.1318995E1,1.5623468E1,2.3930925E1,2.3505072E1,1.6318106E1,2.8892885E1,2.4982646E2,1.5931481E1,5.387512E0,1.1418576E1,4.204892E0,1.2418232E1,1.1512693E1,1.9790075E1,3.7149959E0,1.4567764E1,1.7503409E0,1.8608585E1,1.02843E1,1.7067623E1,2.3275883E2,1.3359499E1,2.571982E0,3.2012365E0,2.186276E0,1.0396016E0,3.1652906E0,6.0114465E0,6.406785E0,7.427937E0,4.084756E0,1.3242186E1,6.5478907E0,1.819346E0,1.8956498E0,2.1097803E0,1.2457984E1,1.1145841E1,7.462745E0,1.6139593E0,1.5453664E1,1.0362989E0,1.5356832E0,1.0067818E0,2.1944547E0,1.1640403E0,1.0222355E0,2.0687563E0,1.0965343E0,2.6006808E0,3.410766E0,1.4766831E0,4.9301023E0,6.3700733E0,1.0578638E0,3.169391E0,3.3784995E0,1.1074737E0,1.0023065E0,8.890453E0,3.5675304E0,1.0101384E1,1.0444562E0,6.197408E0,1.2653369E0,5.532153E0,9.921511E0],"tree_param":{"num_deleted":"0","num_feature":"3","num_nodes":"75","size_leaf_vector":"1"}},{"base_weights":[-3.1647587E-4,-9.006273E-1,7.9672515E-1,-1.0293791E0,-1.3300318E-1,-3.1971705E-1,9.63882E-1,-1.0605203E-1,-6.8048334E-1,-8.255537E-1,3.19567E-1,-7.844037E-1,4.350353E-2,5.367276E-1,1.0130194E0,-9.99743E-2,-1.2787324E-1,-9.975716E-2,-2.7629432E-1,1.5074917E-2,6.2641764E-1,-8.6003757E-1,-1.0759677E-2,-5.5693865E-1,2.7505264E-1,2.6175526E-1,9.905731E-2,5.710941E-1,1.0440095E-1,1.3061152E-1,-4.6035957E-1,2.5779564E-2,-4.7899377E-1,-2.891649E-1,3.0346665E-1,3.9548266E-1,8.903422E-2,-9.853167E-2,-4.5930997E-1,-6.831891E-1,-2.1297915E-3,3.887315E-1,-5.797006E-2,-2.8734205E-2,6.626605E-1,-4.8653495E-2,7.131545E-1,-1.39842825E-2,5.1040865E-2,-6.101132E-2,-1.4645022E-3,-7.4257016E-2,1.1903706E-2,-6.2449288E-2,4.3028807E-3,-2.6167145E-2,4.930142E-2,6.714795E-2,-7.260507E-2,-6.791892E-2,-2.2185173E-2,-8.265988E-2,-3.059378E-2,1.4068116E-2,6.6387236E-2,-1.3765166E-2,5.905507E-2,7.269246E-2,1.7117573E-2,3.3050664E-2,8.843664E-2],"categories":[],"categories_nodes":[],"categories_segments":[],"categories_sizes":[],"default_left":[0,0,0,0,0,0,0,0,0,0,0,0,0,0,0,0,0,0,0,0,0,0,0,0,0,0,0,0,0,0,0,0,0,0,0,0,0,0,0,0,0,0,0,0,0,0,0,0,0,0,0,0,0,0,0,0,0,0,0,0,0,0,0,0,0,0,0,0,0,0,0],"id":20,"left_children":[1,3,5,7,9,11,13,-1,15,17,19,21,23,25,27,-1,29,-1,31,33,35,37,-1,39,41,43,-1,45,-1,47,49,-1,51,53,55,57,-1,-1,59,61,-1,63,-1,65,67,-1,69,-1,-1,-1,-1,-1,-1,-1,-1,-1,-1,-1,-1,-1,-1,-1,-1,-1,-1,-1,-1,-1,-1,-1,-1],"loss_changes":[4.002848E2,2.5751556E1,5.5525696E1,1.7139435E0,1.2416227E1,6.6642895E0,4.863083E0,0E0,3.6052485E0,1.1985493E0,2.2488444E0,7.92346E-1,3.350309E0,3.3226347E0,2.5522614E0,0E0,8.24572E-1,0E0,6.7605555E-1,1.2420864E0,3.8011312E-1,3.2084846E-1,0E0,4.4059467E-1,1.902959E0,2.2588444E0,0E0,2.942143E0,0E0,6.6542464E-1,2.654975E-1,0E0,7.267541E-1,7.970805E-1,9.047726E-1,3.027758E0,0E0,0E0,1.3870144E-1,4.0043592E-2,0E0,9.874687E-1,0E0,8.981519E-1,1.3210416E-1,0E0,7.318821E-1,0E0,0E0,0E0,0E0,0E0,0E0,0E0,0E0,0E0,0E0,0E0,0E0,0E0,0E0,0E0,0E0,0E0,0E0,0E0,0E0,0E0,0E0,0E0,0E0],"parents":[2147483647,0,0,1,1,2,2,3,3,4,4,5,5,6,6,8,8,9,9,10,10,11,11,12,12,13,13,14,14,16,16,18,18,19,19,20,20,21,21,23,23,24,24,25,25,27,27,29,29,30,30,32,32,33,33,34,34,35,35,38,38,39,39,41,41,43,43,44,44,46,46],"right_children":[2,4,6,8,10,12,14,-1,16,18,20,22,24,26,28,-1,30,-1,32,34,36,38,-1,40,42,44,-1,46,-1,48,50,-1,52,54,56,58,-1,-1,60,62,-1,64,-1,66,68,-1,70,-1,-1,-1,-1,-1,-1,-1,-1,-1,-1,-1,-1,-1,-1,-1,-1,-1,-1,-1,-1,-1,-1,-1,-1],"split_conditions":[6.182021E-1,6.2594944E-1,4.9564156E-1,5.4867524E-1,5.018518E-1,3.4771734E-1,5.911231E-1,-1.0605203E-1,5.1261127E-1,4.225486E-1,1E0,8.262642E-1,6.867215E-1,7.967305E-1,6.556145E-1,-9.99743E-2,5.8786243E-1,-9.975716E-2,4.5023334E-1,7.4153566E-1,8.3222973E-1,1E0,-1.0759677E-2,4.7189286E-1,4.892089E-1,1E0,9.905731E-2,6.3242036E-1,1.0440095E-1,5.9326464E-1,5.7807E-1,2.5779564E-2,7.372986E-1,5.6796426E-1,5.3036565E-1,8.0611974E-1,8.903422E-2,-9.853167E-2,1.8687475E-1,6.556145E-1,-2.1297915E-3,7.800566E-1,-5.797006E-2,5.8278126E-1,5.790281E-1,-4.8653495E-2,7.14343E-1,-1.39842825E-2,5.1040865E-2,-6.101132E-2,-1.4645022E-3,-7.4257016E-2,1.1903706E-2,-6.2449288E-2,4.3028807E-3,-2.6167145E-2,4.930142E-2,6.714795E-2,-7.260507E-2,-6.791892E-2,-2.2185173E-2,-8.265988E-2,-3.059378E-2,1.4068116E-2,6.6387236E-2,-1.3765166E-2,5.905507E-2,7.269246E-2,1.7117573E-2,3.3050664E-2,8.843664E-2],"split_indices":[0,1,1,1,0,1,1,0,0,0,2,0,0,0,0,0,1,0,0,1,1,2,0,1,1,2,0,1,0,0,0,0,1,0,0,1,0,0,1,0,0,0,0,1,1,0,1,0,0,0,0,0,0,0,0,0,0,0,0,0,0,0,0,0,0,0,0,0,0,0,0],"split_type":[0,0,0,0,0,0,0,0,0,0,0,0,0,0,0,0,0,0,0,0,0,0,0,0,0,0,0,0,0,0,0,0,0,0,0,0,0,0,0,0,0,0,0,0,0,0,0,0,0,0,0,0,0,0,0,0,0,0,0,0,0,0,0,0,0,0,0,0,0,0,0],"sum_hessian":[5.55822E2,2.609415E2,2.9488052E2,2.231689E2,3.7772602E1,3.8282005E1,2.565985E2,2.030094E2,2.01595E1,1.4602625E1,2.3169975E1,1.62864E1,2.1995604E1,2.7702454E1,2.2889607E2,1.2264688E1,7.894812E0,1.0498483E1,4.104142E0,1.2156271E1,1.1013704E1,1.4405808E1,1.8805922E0,5.7304363E0,1.6265167E1,1.8232588E1,9.469866E0,1.6272657E1,2.1262341E2,4.7833E0,3.1115124E0,1.0543193E0,3.049823E0,5.9142904E0,6.241981E0,7.206477E0,3.8072271E0,9.863402E0,4.542406E0,4.4144816E0,1.3159547E0,1.4837102E1,1.4280651E0,1.1110456E1,7.122131E0,1.6397791E0,1.4632879E1,3.1628344E0,1.6204655E0,2.052919E0,1.0585936E0,1.9490888E0,1.1007344E0,2.505373E0,3.4089174E0,1.4721735E0,4.769808E0,6.105313E0,1.1011645E0,1.3926282E0,3.1497781E0,2.3355346E0,2.0789473E0,8.597459E0,6.239643E0,1.0110063E1,1.0003939E0,5.874918E0,1.2472129E0,5.429247E0,9.203632E0],"tree_param":{"num_deleted":"0","num_feature":"3","num_nodes":"71","size_leaf_vector":"1"}},{"base_weights":[-7.4330973E-4,-8.344963E-1,8.262464E-1,-9.8559976E-1,6.781612E-2,-2.3417462E-1,9.7557944E-1,-1.0361546E0,-5.333544E-1,-7.9406595E-1,3.8790876E-1,-7.751054E-1,1.0834545E-1,5.864162E-1,1.0195351E0,-1.0489551E-1,-4.031221E-1,-9.23778E-2,8.232824E-3,-8.8357E-1,-5.6981924E-3,5.6784514E-2,5.3789425E-1,-9.07777E-1,-3.5964563E-1,-1.5349802E-1,5.121148E-1,3.250737E-1,9.745158E-2,5.635206E-1,1.0341722E-1,-8.957405E-2,-8.176652E-2,-2.768736E-1,5.385316E-1,-9.474858E-2,-1.8594114E-2,-1.6376348E-1,3.4311023E-1,6.478667E-1,-5.5292863E-3,-9.583416E-2,-2.8216034E-2,-5.909256E-1,1.6671535E-2,-4.533608E-1,2.4759221E-1,2.3126307E-1,8.305713E-2,3.797167E-2,6.9848907E-1,-4.4687826E-2,8.992933E-2,-5.7811886E-2,2.6321638E-2,3.2087926E-2,-6.0376026E-2,6.3635684E-3,9.033787E-2,6.933033E-3,-6.7370355E-2,5.418859E-2,-3.074509E-3,2.0216178E-2,7.295787E-2,-5.771417E-2,6.5071754E-2,-1.8247439E-2,-7.157351E-2,-6.3972175E-2,4.2642257E-4,3.7309222E-2,-1.7207203E-2,4.4167157E-2,-8.436263E-3,1.7042426E-2,-5.5775832E-2,7.924111E-2,8.714632E-3,-7.567323E-2,4.791821E-2],"categories":[],"categories_nodes":[],"categories_segments":[],"categories_sizes":[],"default_left":[0,0,0,0,0,0,0,0,0,0,0,0,0,0,0,0,0,0,0,0,0,0,0,0,0,0,0,0,0,0,0,0,0,0,0,0,0,0,0,0,0,0,0,0,0,0,0,0,0,0,0,0,0,0,0,0,0,0,0,0,0,0,0,0,0,0,0,0,0,0,0,0,0,0,0,0,0,0,0,0,0],"id":21,"left_children":[1,3,5,7,9,11,13,15,17,19,21,23,25,27,29,-1,31,-1,33,35,-1,37,39,41,43,45,47,49,-1,51,-1,53,-1,55,57,-1,-1,59,61,63,65,-1,-1,67,-1,69,71,73,-1,75,77,79,-1,-1,-1,-1,-1,-1,-1,-1,-1,-1,-1,-1,-1,-1,-1,-1,-1,-1,-1,-1,-1,-1,-1,-1,-1,-1,-1,-1,-1],"loss_changes":[3.5541193E2,3.5063187E1,4.1207794E1,4.4755707E0,1.0723711E1,6.151967E0,3.285675E0,1.1714325E0,5.1190643E0,6.458192E-1,1.370059E0,3.801689E-1,2.2914429E0,2.2588758E0,7.6976013E-1,0E0,6.4473796E-1,0E0,1.8299894E0,2.4032831E-1,0E0,6.819831E-1,1.1564922E0,1.6230106E-2,6.778832E-1,1.7318233E0,5.649574E-1,1.7612729E0,0E0,1.7758963E0,0E0,8.877834E-1,0E0,1.735569E0,6.7486966E-1,0E0,0E0,7.925623E-1,3.6110365E-1,4.3715858E-1,1.9655061E0,0E0,0E0,4.9168706E-2,0E0,6.899866E-1,4.0166312E-1,4.2799118E-1,0E0,9.223851E-1,3.4383535E-1,1.8456678E0,0E0,0E0,0E0,0E0,0E0,0E0,0E0,0E0,0E0,0E0,0E0,0E0,0E0,0E0,0E0,0E0,0E0,0E0,0E0,0E0,0E0,0E0,0E0,0E0,0E0,0E0,0E0,0E0,0E0],"parents":[2147483647,0,0,1,1,2,2,3,3,4,4,5,5,6,6,7,7,8,8,9,9,10,10,11,11,12,12,13,13,14,14,16,16,18,18,19,19,21,21,22,22,23,23,24,24,25,25,26,26,27,27,29,29,31,31,33,33,34,34,37,37,38,38,39,39,40,40,43,43,45,45,46,46,47,47,49,49,50,50,51,51],"right_children":[2,4,6,8,10,12,14,16,18,20,22,24,26,28,30,-1,32,-1,34,36,-1,38,40,42,44,46,48,50,-1,52,-1,54,-1,56,58,-1,-1,60,62,64,66,-1,-1,68,-1,70,72,74,-1,76,78,80,-1,-1,-1,-1,-1,-1,-1,-1,-1,-1,-1,-1,-1,-1,-1,-1,-1,-1,-1,-1,-1,-1,-1,-1,-1,-1,-1,-1,-1],"split_conditions":[6.405948E-1,6.6613024E-1,4.9564156E-1,5.5959135E-1,5.0457513E-1,